160 50
sent_0 0.011969 -0.243155 0.116213 -0.012191 0.218536 -0.384511 0.208842 -0.071585 -0.071698 0.217463 -0.067311 0.044985 0.116873 0.240811 0.116687 0.005759 -0.156271 -0.100223 -0.012331 0.297717 0.196142 0.031134 0.090009 0.039901 -0.276206 -0.259757 0.251911 -0.256137 0.255699 0.351484 0.422281 -0.010699 0.169446 -0.011993 0.170593 0.346050 0.209398 0.288636 0.123292 -0.119716 -0.566825 -0.108023 0.124938 -0.031278 -0.336198 0.088953 0.144011 0.152983 -0.217168 -0.345996
sent_1 -0.159660 0.084530 0.080759 -0.218836 0.211985 -0.049508 0.157824 -0.101596 -0.136222 -0.005707 -0.054813 -0.025421 0.064449 -0.024107 0.108884 -0.026308 -0.060187 -0.181273 0.331712 0.163742 0.045679 0.030202 0.362067 0.135018 -0.156481 -0.194841 0.142341 -0.339297 -0.069507 0.109171 0.280975 -0.252868 -0.006215 0.029083 0.101186 -0.027244 0.213550 -0.051879 0.094766 0.198192 -0.223593 -0.131640 0.086659 -0.109855 -0.252584 -0.131406 -0.011342 -0.097363 -0.152676 0.112340
sent_2 0.226453 -0.082327 -0.064643 -0.026688 -0.043342 -0.056317 -0.160402 0.066166 0.068003 0.023026 -0.074349 -0.162388 0.064234 0.034520 -0.094390 0.104142 0.011849 0.114259 -0.119534 0.103459 0.073343 0.014604 -0.128729 -0.031403 0.079510 0.093827 -0.026485 0.134665 -0.025702 0.061679 -0.019765 0.066091 0.035472 0.065064 -0.037565 -0.045987 -0.085227 0.033780 -0.006787 -0.235977 -0.075617 -0.029008 -0.074563 0.138803 -0.132664 0.041686 0.027260 0.099389 -0.110437 -0.176361
sent_3 -0.490558 0.138463 0.163517 0.104167 0.153547 -0.083520 0.338891 -0.261289 -0.150079 -0.006027 0.232353 0.586826 -0.022788 0.045783 0.284427 -0.287389 0.032310 -0.422326 0.327660 -0.265493 -0.161055 -0.179059 0.268259 0.047254 -0.195270 -0.316402 0.033037 -0.581790 0.179498 -0.082813 0.136839 -0.200263 -0.061569 -0.140680 0.022294 0.368303 0.276135 0.077789 0.097020 0.444813 -0.040732 -0.032285 0.149301 -0.400804 0.264378 -0.177696 -0.019179 -0.186379 0.098991 0.432138
sent_4 -0.010714 -0.131017 -0.012780 0.021597 0.035374 -0.071438 0.077648 0.077673 -0.029706 0.000793 0.121174 0.047700 0.033501 -0.002527 0.072185 0.016632 -0.016811 0.036861 0.005846 0.006017 -0.010677 0.006496 0.071171 0.027582 -0.038716 -0.044370 -0.082705 0.138263 0.147619 0.168674 -0.138374 0.098457 0.008566 0.050160 0.011097 0.075498 -0.030451 0.059455 -0.012291 -0.072941 -0.054391 0.135905 0.142965 -0.037577 0.140276 0.002906 0.104515 0.048149 0.048863 -0.087791
sent_5 -0.149294 0.111778 0.068572 -0.009527 0.003071 0.055947 0.007607 -0.018303 0.045810 -0.018566 0.063243 0.036743 -0.007406 -0.054265 0.013963 -0.064416 0.050726 -0.042777 0.126342 -0.039973 -0.048730 -0.004987 0.006336 0.091793 0.011226 -0.094711 0.040131 -0.143721 -0.060273 0.007010 0.065898 -0.035607 -0.000672 0.033103 0.039430 -0.004797 0.048349 -0.021439 0.026027 0.117527 0.046254 0.057561 -0.006435 -0.107813 0.011427 -0.033641 0.019338 -0.045864 0.086627 0.099837
sent_6 -0.523171 0.308825 0.326050 -0.104870 0.153188 0.281742 0.356320 -0.044030 -0.075357 -0.047009 0.178414 0.271162 -0.135024 -0.266670 0.053511 -0.163476 0.073338 -0.218873 0.461357 -0.087200 -0.202998 0.061151 0.348500 0.139741 -0.062781 -0.288666 0.141956 -0.269260 -0.187214 -0.196660 0.159112 -0.103333 -0.073510 -0.077698 0.197983 -0.117411 0.120379 -0.150058 -0.110820 0.654279 0.108242 0.119166 0.198209 -0.410137 0.240862 -0.105425 0.015335 -0.286094 0.360923 0.404882
sent_7 0.017648 -0.166954 -0.102131 -0.035832 0.081306 -0.195285 0.067747 -0.156669 -0.097113 0.033810 -0.022149 0.114699 -0.025205 0.067154 0.249660 -0.027440 -0.025368 -0.047410 -0.040701 0.056696 0.018924 -0.009962 0.069275 0.043026 0.031057 -0.007701 -0.047345 0.098691 0.075205 0.180109 -0.038284 -0.078528 0.109900 0.162601 0.044243 0.076794 0.062909 0.052519 -0.035477 -0.223753 -0.186394 0.002967 -0.038017 0.009823 -0.128892 -0.053264 0.129104 0.081581 0.052338 -0.142997
sent_8 -0.152217 0.168769 0.140359 0.017088 0.025427 0.098704 0.088822 -0.008518 0.031091 -0.020177 0.069971 0.125018 -0.018568 -0.104421 -0.043448 -0.078619 0.071356 -0.124885 0.195775 -0.096575 -0.067573 -0.052984 0.027002 0.030062 -0.025739 -0.096805 0.063076 -0.167975 -0.074867 -0.125431 0.100396 -0.031803 -0.040641 -0.039248 0.049348 0.000327 0.037283 -0.015849 -0.003114 0.205364 0.063290 0.011809 0.064346 -0.165333 0.097297 -0.012382 -0.007036 -0.090757 0.076318 0.187747
sent_9 -0.126654 0.058992 0.033119 0.155029 0.088692 -0.065674 0.187836 -0.104447 -0.066864 0.045041 0.052916 0.250003 -0.008826 0.033498 0.130502 -0.097440 0.050600 -0.224566 0.125298 -0.114042 -0.026830 -0.009740 -0.034965 -0.017053 -0.078016 -0.062863 -0.009838 -0.106284 0.026865 -0.053608 0.104716 -0.051252 0.006333 -0.016700 -0.002476 0.178320 0.025700 0.079695 0.004475 0.080593 -0.077408 0.107634 0.077080 -0.173540 0.045350 0.025887 -0.000933 -0.036433 0.073662 0.102424
sent_10 -0.034562 -0.053553 0.130273 0.133281 0.159425 -0.165062 0.325787 0.046655 -0.188945 0.184266 0.049902 0.224433 -0.079090 0.008306 0.004412 -0.001842 -0.035723 -0.242660 -0.033423 0.051998 0.029455 0.105826 0.065659 -0.099998 -0.202863 -0.006583 0.063969 -0.078030 0.183050 -0.091325 0.251365 -0.021052 0.079163 -0.123541 0.090074 0.232654 0.048050 0.214697 0.026012 0.073294 -0.197347 -0.020359 0.236435 -0.128579 0.105601 0.084066 0.012683 -0.018782 0.036149 0.042369
sent_11 -0.023072 -0.113491 -0.160248 0.061616 0.061869 -0.107276 0.111750 -0.210145 -0.169639 0.056279 -0.010642 0.194085 -0.049072 0.197376 0.322756 -0.023109 -0.176270 -0.093278 -0.013250 -0.142545 -0.039051 -0.109703 0.084555 -0.064418 -0.072336 0.060477 -0.143472 0.023601 0.179963 0.126785 -0.049440 -0.123928 0.064365 -0.040166 -0.021103 0.134922 0.155888 0.007052 0.067453 -0.138362 -0.060646 -0.053421 -0.081933 -0.026251 -0.120732 -0.098903 -0.040853 -0.015982 -0.058368 -0.120864
sent_12 -0.021372 0.060274 -0.040172 -0.017441 0.072411 0.006964 0.028919 -0.132798 -0.089377 0.011838 -0.003627 0.071441 -0.014895 0.011162 0.140275 -0.023240 -0.096063 -0.128482 0.130320 -0.112306 -0.045325 -0.064521 0.034751 0.009169 -0.004236 0.030232 -0.040501 -0.129198 0.009818 -0.008886 0.060420 -0.142817 0.006233 0.009758 0.012757 -0.005497 0.141614 -0.031375 0.054934 -0.007870 -0.009771 -0.092464 -0.079028 -0.034236 -0.121983 -0.096719 -0.076720 -0.077270 -0.059385 0.110622
sent_13 -0.235286 -0.251067 -0.143172 0.211659 0.142015 -0.321510 0.262270 -0.196017 -0.210056 -0.171369 0.215476 0.694669 -0.169818 0.252589 0.390947 -0.344675 0.180403 -0.322229 -0.120923 -0.112333 -0.240230 -0.095912 0.115409 0.078512 -0.182620 -0.205067 -0.123880 -0.112636 0.376872 -0.087760 -0.188831 0.059378 0.147169 0.003793 0.071592 0.704412 -0.011100 0.243480 0.032408 -0.016279 -0.291019 0.056519 0.291112 -0.257212 0.259187 -0.087281 0.176837 0.259236 0.177124 0.011196
sent_14 -0.258589 0.175190 0.175837 0.098433 -0.015145 0.156811 0.068464 0.206205 0.158285 0.015497 0.163136 0.114499 -0.119935 -0.168689 -0.153385 -0.125391 0.205836 -0.016737 0.062356 -0.088130 -0.160534 -0.054576 -0.144134 0.037594 -0.059766 -0.178063 0.165498 -0.097153 -0.081177 -0.255919 0.092417 0.111966 0.001184 -0.122446 0.088718 0.147908 -0.103871 0.011628 0.052218 0.282254 0.072033 0.074874 0.125416 -0.225096 0.309541 0.093023 0.029807 -0.000178 0.244344 0.148466
sent_15 -0.070838 -0.004111 -0.031209 0.048891 0.038648 -0.054990 0.034995 -0.093230 -0.042721 -0.007421 0.066839 0.166868 -0.024777 0.086360 0.114921 -0.078973 -0.010030 -0.097447 0.023812 -0.109382 -0.048148 -0.079774 0.011901 0.001661 -0.049745 -0.071165 -0.027881 -0.111602 0.087082 0.016379 -0.037956 -0.029916 -0.002204 -0.013609 0.007481 0.156100 0.092904 0.021951 0.100515 -0.023973 -0.056735 -0.041291 -0.021255 -0.060817 0.016698 -0.015021 -0.002643 0.015751 -0.020555 0.010219
sent_16 -0.223800 -0.002454 -0.030214 0.002063 0.154226 -0.074663 0.195590 -0.278259 -0.161828 -0.011523 0.093596 0.355145 -0.039617 0.095128 0.355600 -0.143933 -0.096831 -0.247234 0.178086 -0.148243 -0.110984 -0.105945 0.185449 0.033049 -0.108075 -0.119287 -0.054906 -0.208029 0.094038 0.077992 0.022090 -0.166481 0.049299 0.039519 0.054759 0.177421 0.206310 0.032802 0.059662 0.085815 -0.081153 -0.065640 0.003100 -0.136815 -0.077637 -0.184782 0.024603 -0.086648 0.014513 0.131557
sent_17 -0.383590 -0.018652 0.052090 0.111906 0.167712 -0.144194 0.332041 -0.267294 -0.184766 -0.044530 0.248936 0.541783 -0.046923 0.130850 0.382750 -0.240468 -0.020726 -0.327726 0.203226 -0.225179 -0.133093 -0.190428 0.252303 0.033416 -0.196074 -0.302230 -0.052996 -0.356437 0.266728 0.074216 -0.016733 -0.104145 -0.002610 -0.055226 0.067572 0.396412 0.242049 0.106418 0.093802 0.240806 -0.094091 0.012960 0.153572 -0.300386 0.184421 -0.178091 0.090050 -0.077668 0.080080 0.209129
sent_18 -0.162411 0.140110 0.137741 0.005261 -0.006213 0.088003 0.045459 0.075760 0.133987 -0.009074 0.047981 -0.026041 -0.006831 -0.090576 -0.129892 -0.039315 0.098146 -0.011101 0.109084 0.044574 0.032989 -0.061193 0.011661 0.011827 0.002183 -0.155701 0.040464 -0.160610 -0.090216 -0.112269 0.102080 0.028017 -0.087182 -0.076207 0.025629 0.023720 -0.016319 0.009040 -0.016078 0.196986 0.040256 0.021332 0.068370 -0.115178 0.141115 0.030134 0.076480 -0.081502 0.064043 0.049181
sent_19 -0.023886 0.186784 0.161893 -0.248621 0.099026 0.155756 0.003464 0.003124 0.070024 0.035890 -0.003392 -0.093880 -0.049458 -0.186066 -0.078527 0.042426 0.016734 -0.023824 0.254429 0.054557 -0.107318 0.058151 0.077787 0.088600 0.055453 -0.007455 0.177899 -0.068700 -0.270416 -0.086470 0.202653 -0.076066 0.042628 0.050743 0.131902 -0.232745 0.014391 -0.139986 -0.000747 0.125833 -0.105940 -0.082960 -0.032269 -0.061615 -0.156377 0.035903 -0.014700 -0.133136 0.068790 0.113513
sent_20 -0.247914 -0.067785 0.233299 0.114527 -0.015750 -0.071499 0.201008 0.000811 -0.046273 -0.025879 0.212433 0.263603 0.065888 -0.071122 -0.081036 -0.040507 0.099402 -0.213459 0.229481 0.012972 0.032502 -0.131524 0.227319 0.069148 -0.133308 -0.306541 0.006664 -0.282155 0.246135 -0.013310 0.138060 0.145316 0.046023 -0.117884 -0.023092 0.174830 0.063661 0.177289 -0.180083 0.236775 0.011260 0.126597 0.290798 -0.285704 0.369441 -0.113224 0.211366 -0.069164 0.054449 0.204367
sent_21 -0.039215 -0.078485 -0.064308 0.005072 0.080671 -0.099085 0.026997 -0.073734 -0.057384 -0.020751 0.080672 0.170883 -0.048550 0.048062 0.188055 -0.059766 -0.013822 -0.093706 0.021438 -0.080939 -0.093320 -0.093403 0.042401 0.033821 -0.005545 -0.044122 -0.038338 -0.002236 0.083143 0.028435 -0.058177 -0.008738 0.083645 0.058903 0.006257 0.117964 0.042283 0.012717 0.022557 -0.090244 -0.083683 -0.050235 0.004059 -0.028259 0.017043 -0.079394 0.056911 0.035718 0.001536 0.028243
sent_22 -0.183792 -0.013607 0.000328 0.023201 0.066953 -0.049735 0.164516 -0.196814 -0.082061 -0.020680 0.077435 0.241883 -0.020464 0.116122 0.198797 -0.087679 -0.082821 -0.168337 0.120987 -0.096424 -0.061359 -0.095230 0.179065 0.039770 -0.077166 -0.144013 -0.033976 -0.186630 0.085953 0.070608 -0.028805 -0.074991 0.006586 -0.029977 0.040215 0.102502 0.157568 0.011307 0.010843 0.104620 -0.031287 -0.018222 0.014995 -0.140985 0.013653 -0.129770 0.047343 -0.066027 0.012691 0.051290
sent_23 -0.271276 0.102488 0.098251 0.006438 0.081382 0.012146 0.200022 -0.114420 -0.058151 -0.014861 0.141352 0.256684 -0.011562 -0.017876 0.146224 -0.103753 -0.019072 -0.218010 0.237769 -0.118592 -0.087677 -0.101188 0.160247 0.031203 -0.073861 -0.180692 -0.014652 -0.240023 0.053249 -0.023638 0.058949 -0.084810 0.004971 -0.045989 0.043064 0.102516 0.158805 0.019540 -0.012895 0.223094 -0.003289 0.008230 0.075220 -0.217014 0.122948 -0.112872 0.042747 -0.139956 0.052309 0.227232
sent_24 -0.260065 -0.386194 -0.263854 0.023872 0.153446 -0.369631 0.228228 -0.245724 -0.220517 -0.106246 0.102756 0.422241 -0.101092 0.282106 0.534667 -0.170489 -0.122224 -0.036361 -0.137787 0.048378 -0.123254 -0.006007 0.266441 0.113781 -0.156313 -0.204888 -0.168960 0.186154 0.352516 0.342626 -0.287068 0.065100 0.237272 0.193963 0.082583 0.318150 0.132499 0.141181 -0.140515 -0.149113 -0.233484 0.115836 0.148581 -0.038246 0.027733 -0.158598 0.294476 0.199942 0.089409 -0.241166
sent_25 -0.669003 0.331051 0.423751 -0.128426 0.221724 0.126437 0.519491 -0.230316 -0.204047 -0.098180 0.044151 0.206631 -0.065769 -0.076511 0.058082 -0.216746 -0.037183 -0.378166 0.556091 0.045020 -0.023564 0.118839 0.706747 0.140235 -0.221954 -0.424626 0.190691 -0.615603 -0.071370 -0.051700 0.298604 -0.241950 -0.304696 -0.241738 0.193564 -0.066614 0.315344 -0.195247 -0.038734 0.911541 0.044200 -0.004753 0.242196 -0.390840 0.129713 -0.094956 -0.078011 -0.393680 0.226343 0.456944
sent_26 -0.463791 -0.124316 0.115154 0.025028 0.256857 -0.265160 0.459674 -0.330985 -0.299962 -0.028540 0.057461 0.450345 -0.126335 0.184315 0.382842 -0.170281 -0.065496 -0.286107 0.173159 0.035999 -0.077328 0.036858 0.479434 0.066341 -0.272763 -0.341181 0.083857 -0.261328 0.170779 0.158528 0.087207 -0.103256 0.015048 -0.073290 0.183991 0.265901 0.226096 0.100639 -0.121973 0.377036 -0.227327 0.022192 0.172699 -0.258643 0.019552 -0.077555 0.171894 -0.041510 0.146824 0.032041
sent_27 -0.383655 -0.231900 0.076588 0.305155 0.000677 -0.161249 0.408265 -0.036462 -0.300952 -0.074369 0.291142 0.634543 -0.236553 0.039536 0.162902 -0.160793 0.084291 -0.233944 0.046304 -0.191538 -0.161420 -0.123886 0.190609 -0.025260 -0.097963 -0.181566 -0.228615 0.064516 0.478777 -0.084972 -0.176420 0.226497 0.075822 -0.165425 -0.019498 0.331411 -0.011695 0.287992 -0.384274 0.284340 0.119037 0.229111 0.327058 -0.410104 0.704936 -0.079771 0.264062 0.002082 0.377375 0.234032
sent_28 -0.440462 0.051209 0.204421 0.078939 0.079081 0.030226 0.378204 -0.153367 -0.151261 0.000305 0.182993 0.387332 -0.046088 0.024226 0.122423 -0.159758 -0.011497 -0.263702 0.227788 -0.143264 -0.107451 -0.118437 0.263838 -0.030974 -0.194746 -0.279423 0.033417 -0.350891 0.216035 -0.046821 0.106974 -0.019436 -0.028790 -0.222051 0.093797 0.261518 0.199458 0.107391 -0.015302 0.488127 -0.003410 0.052161 0.204923 -0.364033 0.276486 -0.112849 0.042092 -0.174022 0.175397 0.270626
sent_29 -0.274322 0.116158 0.194275 -0.071696 -0.025198 0.006890 0.081838 0.022741 0.134610 -0.007592 -0.018054 -0.029063 0.056750 -0.049818 -0.090865 -0.074728 0.124147 -0.041345 0.136622 0.231237 0.086938 0.152860 0.092039 0.137944 -0.097319 -0.283595 0.219026 -0.295615 -0.074683 0.067260 0.272163 0.010332 0.050643 0.035504 0.135130 0.072705 0.047205 0.064414 0.011024 0.231374 -0.076810 0.096304 0.164063 -0.100536 -0.113555 -0.001499 0.156489 0.002841 0.059285 0.022676
sent_30 -0.332787 -0.052091 -0.031013 0.110647 0.074142 -0.115448 0.191110 -0.334126 -0.225982 -0.105675 0.136335 0.410582 -0.128535 0.162070 0.408233 -0.228517 -0.105110 -0.241910 0.182589 -0.181408 -0.085022 -0.048428 0.226479 0.088690 -0.057685 -0.155146 -0.224485 -0.241000 0.194259 0.079867 -0.059780 -0.118661 0.005041 0.037444 0.041010 0.205022 0.232107 0.035532 -0.118613 0.177797 0.106276 0.026341 0.039711 -0.189916 0.067674 -0.162336 0.041567 -0.062698 0.082554 0.232534
sent_31 -0.776980 0.434457 0.492929 -0.076622 0.080614 0.226396 0.433862 -0.053359 0.114789 -0.086629 0.252566 0.462089 -0.028545 -0.290597 -0.041790 -0.185745 0.195597 -0.342765 0.642813 -0.110300 -0.127948 -0.055618 0.328063 0.157234 -0.166254 -0.411159 0.179829 -0.509985 -0.131735 -0.193684 0.335993 -0.069604 -0.016093 -0.053377 0.135357 0.022130 0.138415 0.049449 -0.126812 0.743544 0.136323 0.253690 0.378682 -0.538482 0.244187 -0.129412 0.165383 -0.325638 0.305220 0.526558
sent_32 -0.405646 0.113495 0.194613 0.070633 0.034662 0.091746 0.244297 -0.077992 -0.003015 -0.114303 0.239633 0.430576 -0.084223 -0.113536 0.094635 -0.219706 0.100151 -0.258688 0.279161 -0.248923 -0.209321 -0.171118 0.205877 0.041996 -0.081522 -0.216182 0.013370 -0.316108 0.050971 -0.181029 -0.006274 -0.011012 -0.043938 -0.123800 0.033462 0.171984 0.085882 0.015371 -0.005470 0.402724 0.117856 0.045788 0.167424 -0.344944 0.366098 -0.148282 0.047698 -0.164730 0.162134 0.381497
sent_33 -0.384195 0.253850 0.265438 0.016265 -0.024472 0.188292 0.210169 0.023381 -0.015737 -0.108892 0.186781 0.171116 -0.030647 -0.148559 -0.108835 -0.123315 0.090706 -0.126621 0.346191 -0.091682 -0.045364 -0.003578 0.308530 0.121429 -0.080389 -0.256735 0.034804 -0.279696 -0.048690 -0.160343 0.021278 -0.000446 -0.125834 -0.143980 0.033546 -0.105416 0.048557 -0.116233 -0.176065 0.578226 0.241446 0.165406 0.188232 -0.276530 0.356602 -0.074239 0.016105 -0.218594 0.167681 0.344813
sent_34 -0.105592 0.033969 0.036206 0.021166 0.020944 -0.003984 0.099132 -0.020560 -0.036837 -0.013495 0.077202 0.122289 0.017996 -0.023098 0.044266 -0.025344 -0.015280 -0.082306 0.103951 -0.020347 0.004969 -0.032229 0.077435 0.049230 -0.023259 -0.086345 -0.024420 -0.070016 0.043100 0.005475 0.009532 -0.014994 0.044943 0.038821 0.011717 0.021007 0.054414 0.033114 -0.070454 0.043320 -0.003790 0.034411 0.055638 -0.075633 0.075594 -0.062629 0.075184 -0.035585 0.024391 0.101841
sent_35 -0.649412 0.298872 0.313216 0.001882 0.093600 0.218496 0.375789 -0.100226 -0.006928 -0.153718 0.426347 0.646928 -0.064232 -0.341237 0.123963 -0.217870 0.110400 -0.385148 0.573115 -0.306250 -0.234311 -0.246864 0.378880 0.184900 -0.090168 -0.363599 -0.017475 -0.352607 -0.090714 -0.272501 0.030652 0.035415 0.085587 -0.012305 0.095393 0.034798 0.132367 -0.047667 -0.243791 0.605980 0.254178 0.205173 0.345674 -0.485884 0.491295 -0.362758 0.179000 -0.296953 0.251668 0.595541
sent_36 -0.050282 -0.160813 -0.012936 0.222510 0.024366 -0.242434 0.028969 -0.112112 -0.031774 0.002240 0.172248 0.330244 -0.050018 0.039677 0.233461 -0.190301 0.072817 -0.143709 -0.036162 -0.225365 -0.056642 -0.148296 -0.054047 -0.047448 -0.003944 -0.058676 -0.186023 -0.051004 0.226208 0.019058 -0.084892 0.039616 0.076500 0.025254 -0.043755 0.271539 0.051354 0.196774 -0.027919 -0.132034 -0.010392 0.107429 0.059014 -0.060521 0.188273 -0.031576 0.103153 0.107219 0.058801 0.054532
sent_37 -0.257220 0.166993 0.139480 0.100008 -0.041526 0.172103 0.089903 0.073181 0.060909 -0.024617 0.112789 0.043113 -0.024833 -0.085101 -0.077428 -0.101322 0.067496 -0.054685 0.121318 -0.136459 -0.083652 0.003791 0.011674 0.001347 -0.077816 -0.116630 0.056960 -0.156184 0.030745 -0.155644 0.006207 0.014360 -0.099228 -0.164021 0.005348 0.034558 0.034546 -0.069988 0.041793 0.369714 0.150666 0.138335 0.099876 -0.209634 0.303686 0.024776 -0.116278 -0.119650 0.151412 0.227745
sent_38 0.216014 -0.021900 -0.039212 -0.021636 -0.098188 0.039923 -0.186161 0.132860 0.115533 0.001585 -0.090624 -0.193436 -0.006181 -0.062391 -0.186098 0.070237 0.063933 0.155158 -0.148619 0.073763 0.049071 0.021656 -0.182587 -0.043303 0.149251 0.128007 0.025416 0.149838 -0.085953 -0.071381 -0.017633 0.069565 0.010615 0.040975 -0.039252 -0.094886 -0.139507 -0.009706 -0.022670 -0.174951 0.020681 -0.041974 -0.078853 0.114557 -0.006232 0.069179 0.001957 0.071703 -0.004450 -0.076560
sent_39 -0.484164 0.116600 0.183570 0.064337 0.127820 0.005612 0.325842 -0.230521 -0.053996 -0.111938 0.305407 0.543781 -0.025260 -0.046647 0.253491 -0.293657 -0.010563 -0.379178 0.386484 -0.246291 -0.114144 -0.247594 0.337396 0.089400 -0.138597 -0.336821 -0.054883 -0.504596 0.136003 -0.074391 0.038861 -0.108476 -0.019975 -0.080598 0.092686 0.287368 0.289857 0.054965 0.028993 0.395403 0.097320 -0.033656 0.217708 -0.350678 0.288001 -0.289997 0.068352 -0.159765 0.090439 0.456829
sent_40 -0.289689 0.154845 0.160762 0.049532 0.066083 0.041488 0.185970 -0.122212 -0.042448 -0.036036 0.165072 0.297341 -0.037369 -0.066359 0.092033 -0.174315 0.031203 -0.241517 0.276806 -0.193549 -0.081242 -0.103690 0.145346 0.063661 -0.071792 -0.185674 0.017680 -0.328242 0.026860 -0.108209 0.091989 -0.088544 -0.042212 -0.051053 0.048476 0.103431 0.155807 0.020763 0.010596 0.298999 0.061941 0.003663 0.094643 -0.248194 0.147855 -0.115353 -0.004956 -0.143737 0.098889 0.312873
sent_41 -0.083792 -0.285832 -0.173754 0.160277 0.053960 -0.279759 0.123581 -0.289237 -0.357596 -0.116836 0.001319 0.255346 -0.095503 0.333927 0.386460 -0.187173 -0.117930 -0.107479 -0.113468 -0.075473 0.033728 -0.006829 0.289009 0.022181 -0.109917 -0.106329 -0.221911 -0.112274 0.282592 0.245626 -0.205733 -0.114262 -0.056639 -0.006937 0.018295 0.228090 0.203846 0.053642 -0.046832 0.034370 0.026224 -0.081683 0.014424 0.005705 0.013778 -0.124347 -0.020021 0.090223 -0.027957 -0.053828
sent_42 0.013406 -0.054270 -0.148906 -0.016237 -0.026099 -0.251232 0.063814 -0.189150 -0.011221 0.107739 0.042629 0.499388 -0.089456 0.074035 0.275549 -0.065346 0.119198 -0.142594 -0.180643 -0.167786 -0.189983 -0.228555 -0.084321 -0.085613 0.060915 0.054611 -0.042992 -0.051765 0.079114 -0.076259 -0.034715 -0.092261 0.216522 0.080938 -0.121685 0.236373 -0.033476 -0.004863 0.047233 -0.314201 -0.192734 -0.071010 -0.145877 -0.023264 0.035680 -0.074316 0.087151 0.038108 -0.005688 -0.071828
sent_43 -0.003871 -0.182732 -0.119245 -0.174054 0.138240 -0.261217 0.049061 -0.221494 -0.008440 0.014409 -0.074944 0.084215 -0.011385 0.166193 0.315005 -0.068333 -0.098450 -0.040022 -0.107504 0.148287 0.061435 -0.019226 0.162646 0.067366 -0.036871 -0.099953 -0.006816 0.002692 0.021117 0.282859 -0.009586 -0.121722 0.135238 0.185583 0.129421 0.153271 0.136018 -0.016479 0.153236 -0.325947 -0.345377 -0.136051 -0.064347 0.159571 -0.404728 -0.075722 0.134605 0.130152 -0.118372 -0.307066
sent_44 -0.452651 -0.019887 0.058877 0.044142 0.165975 -0.089293 0.415531 -0.316859 -0.223108 -0.084396 0.154244 0.521814 -0.114055 0.132823 0.346908 -0.275878 -0.058842 -0.295271 0.167765 -0.190217 -0.134269 -0.087778 0.416248 0.075019 -0.196778 -0.270521 -0.002782 -0.274997 0.191232 0.041423 -0.046480 -0.112137 -0.050982 -0.114014 0.098089 0.249883 0.224129 -0.015463 0.005090 0.391169 -0.007233 0.015092 0.166292 -0.283032 0.185036 -0.155529 -0.000451 -0.124124 0.196153 0.220356
sent_45 -0.468191 0.115059 0.099135 0.073195 0.143628 -0.004558 0.351972 -0.294979 -0.192222 -0.072882 0.225992 0.471279 -0.076686 0.034938 0.329243 -0.248786 -0.055155 -0.356535 0.354364 -0.313941 -0.124293 -0.141339 0.362877 0.077796 -0.148151 -0.256697 -0.057160 -0.387026 0.166447 -0.025592 0.015331 -0.164196 -0.100561 -0.108636 0.052963 0.203935 0.290090 -0.069015 0.015750 0.457486 0.063043 0.035377 0.139403 -0.356774 0.239735 -0.188870 -0.040915 -0.246060 0.155534 0.406739
sent_46 -0.388161 0.178273 0.173885 0.065342 0.069184 0.089320 0.252633 -0.123968 -0.082929 -0.047381 0.183742 0.322406 -0.059070 -0.063223 0.102766 -0.174413 0.023541 -0.248859 0.290550 -0.219825 -0.119181 -0.102217 0.200351 0.063527 -0.109138 -0.214052 0.020741 -0.329329 0.057514 -0.127154 0.066548 -0.076187 -0.086011 -0.129744 0.058862 0.108158 0.159208 -0.029764 -0.002187 0.430668 0.117517 0.060649 0.131489 -0.306449 0.252748 -0.095689 -0.034087 -0.190752 0.163597 0.340056
sent_47 -0.316846 0.130402 0.068713 0.023407 0.280543 -0.057220 0.351268 -0.184209 -0.176907 0.063521 0.101141 0.432877 -0.072568 -0.023766 0.311263 -0.122827 -0.012448 -0.268088 0.205045 -0.137841 -0.200945 -0.089503 0.195790 0.012096 -0.206612 -0.111896 0.014157 -0.123290 -0.019668 -0.054883 0.073494 -0.195567 0.068226 0.021909 0.063494 0.111900 0.129115 0.010566 0.058817 0.210049 -0.092710 0.014365 0.088608 -0.227797 -0.034651 -0.109676 -0.008275 -0.116046 0.070380 0.142730
sent_48 -0.081667 0.024696 -0.015518 0.026061 0.092372 -0.090325 0.064270 -0.109436 -0.078690 -0.021063 0.080396 0.192056 -0.029361 0.025585 0.196700 -0.109394 -0.014967 -0.147822 0.090359 -0.104136 -0.067315 -0.057001 0.054696 0.033217 -0.041671 -0.054372 -0.048275 -0.112014 0.025896 0.015438 0.021458 -0.099339 0.011904 0.076694 0.042827 0.086027 0.089841 0.021916 0.044781 0.011707 -0.062172 -0.056407 -0.008364 -0.025359 -0.062047 -0.051819 -0.002702 -0.034600 -0.023363 0.109697
sent_49 0.234095 -0.101406 -0.052864 -0.018156 -0.075110 -0.044851 -0.126337 0.108448 0.042902 -0.014017 -0.123568 -0.255414 0.019454 0.068691 -0.122581 0.034322 -0.054971 0.165745 -0.198257 0.143990 0.126236 0.105420 -0.006030 -0.040636 0.031233 0.113778 -0.000400 0.117569 0.002287 0.059586 -0.072687 0.070090 -0.052297 -0.011187 0.000333 -0.059420 -0.078961 -0.030863 0.021350 -0.178162 -0.012928 -0.099813 -0.023444 0.234523 -0.095249 0.073618 -0.054733 0.123402 -0.114960 -0.194274
sent_50 -0.407429 -0.094519 0.101038 0.161115 0.070226 -0.175670 0.305139 -0.063928 -0.075796 -0.086279 0.407856 0.573760 -0.054099 -0.007431 0.283871 -0.281603 0.133225 -0.267839 0.106120 -0.284590 -0.136326 -0.192077 0.210230 0.030961 -0.133266 -0.345274 -0.044120 -0.191362 0.354671 0.006179 -0.177513 0.076744 -0.041532 -0.010843 0.068518 0.493954 0.058332 0.142379 0.070167 0.218042 -0.077846 0.158557 0.325545 -0.311864 0.530967 -0.058833 0.178991 -0.060742 0.262777 0.248051
sent_51 -0.160514 -0.022509 0.137920 0.059475 0.049343 -0.061679 0.208440 -0.054072 -0.134135 -0.007368 0.084276 0.183130 -0.029475 0.032489 0.035124 -0.110919 -0.036231 -0.128861 0.084539 -0.040135 -0.023167 -0.020133 0.171818 0.012084 -0.092252 -0.140594 0.016343 -0.165736 0.149824 -0.028127 0.038691 0.027882 -0.038740 -0.103105 0.049687 0.157045 0.088690 0.079013 -0.094654 0.213330 -0.035380 -0.014484 0.127525 -0.161816 0.196057 -0.022108 0.022773 -0.062506 0.074546 0.086933
sent_52 -0.096675 0.167738 0.086579 -0.030360 -0.010306 0.113879 0.016383 0.046033 0.084837 -0.054710 0.104653 0.056912 0.010631 -0.115751 -0.092335 -0.063539 0.076270 -0.071643 0.134995 -0.081410 -0.041168 -0.058424 0.003938 0.032467 0.034763 -0.064823 0.036084 -0.100093 -0.075445 -0.143943 0.022401 0.006831 -0.063152 -0.003998 0.008454 0.001838 -0.019189 -0.035371 0.034496 0.131205 0.073379 -0.006248 0.049420 -0.071902 0.106995 -0.008438 -0.011581 -0.072678 0.039886 0.161255
sent_53 0.189387 -0.000739 -0.031010 0.001426 -0.091673 0.055529 -0.139720 0.128346 0.091256 0.005237 -0.075222 -0.200796 -0.005052 -0.039767 -0.170932 0.077280 0.032200 0.149256 -0.105477 0.078943 0.069498 0.058845 -0.150325 -0.032657 0.091686 0.121764 -0.006519 0.138554 -0.074229 -0.041086 -0.000727 0.074296 -0.012894 0.021944 -0.021508 -0.107005 -0.137223 -0.002599 -0.039886 -0.127579 0.045431 -0.003521 -0.053691 0.130376 -0.015960 0.096834 -0.019264 0.065734 -0.016321 -0.091490
sent_54 -0.205507 -0.172475 -0.046948 0.122790 0.223606 -0.439614 0.333229 -0.390427 -0.354412 0.056573 0.098679 0.556637 -0.009985 0.276682 0.484782 -0.151818 -0.095560 -0.394409 0.145284 -0.139030 0.008413 -0.115497 0.290780 -0.009001 -0.265128 -0.176603 -0.120840 -0.369501 0.353506 0.319350 0.096117 -0.199254 0.111474 0.045065 0.017493 0.386235 0.276841 0.283338 0.031195 -0.032650 -0.186777 -0.004181 0.077758 -0.161859 -0.146990 -0.181221 0.178617 0.006357 -0.087624 0.106355
sent_55 -0.066047 -0.048425 -0.043333 0.088707 0.051623 -0.171052 0.026098 -0.232749 -0.077490 -0.094686 0.121871 0.314633 -0.075438 0.036820 0.261557 -0.154873 0.003458 -0.210074 0.051394 -0.257902 -0.019990 -0.144690 0.100172 0.029765 0.016389 -0.045086 -0.170110 -0.159950 0.124000 0.004191 -0.128531 -0.122801 -0.024224 0.078237 -0.012170 0.153607 0.101077 0.046528 0.013172 -0.048906 0.031543 -0.007601 -0.025444 -0.039139 0.073633 -0.082485 0.023759 -0.029130 0.034271 0.207253
sent_56 -0.209258 0.167172 0.153913 0.188774 -0.096957 0.095752 0.016162 0.014752 0.020507 -0.040740 0.190970 0.194445 -0.031452 -0.018120 -0.023683 -0.160977 0.065313 -0.060940 0.049328 -0.309108 -0.142971 -0.058851 -0.062131 0.007536 -0.017901 -0.104298 0.015218 -0.247272 0.167869 -0.181179 -0.053959 0.027590 -0.130500 -0.158742 -0.036348 0.155238 0.031869 -0.020279 0.029974 0.259173 0.170901 0.119165 0.037874 -0.242423 0.410066 0.060271 -0.132728 -0.073051 0.164221 0.296465
sent_57 -0.218299 -0.097035 -0.021244 0.176991 0.073296 -0.277004 0.154271 -0.243690 -0.138748 -0.060530 0.147732 0.389843 -0.051718 0.192328 0.338685 -0.224992 0.014199 -0.215495 0.026981 -0.222539 -0.082892 0.014531 0.110859 0.019335 -0.175759 -0.134487 -0.050335 -0.193183 0.220097 0.144797 -0.057692 -0.014027 -0.007175 -0.007160 0.035514 0.321550 0.120973 0.172499 0.045824 0.083983 0.019563 0.105672 0.076571 -0.060397 0.074495 -0.031294 0.055719 0.056584 0.042339 0.148227
sent_58 0.058862 0.029351 -0.047257 -0.067514 0.015282 0.034526 -0.046138 0.004562 -0.008052 0.034563 -0.042979 -0.088066 0.011712 -0.027476 0.019185 0.044184 -0.024818 0.060297 -0.009017 -0.005566 -0.035218 0.008046 -0.035334 -0.015729 0.037154 0.093655 -0.029189 0.105404 -0.067390 -0.006672 -0.023432 -0.030686 0.034565 0.029940 -0.029412 -0.103555 -0.010852 -0.070654 0.019134 -0.078511 -0.007891 -0.008658 -0.075537 0.065789 -0.090017 0.015863 -0.046942 -0.011024 -0.022838 -0.038038
sent_59 -0.064938 0.098955 -0.078199 0.050192 -0.035345 0.087966 -0.038428 -0.099683 -0.061672 -0.037438 0.042083 0.108225 -0.072710 0.008882 0.141322 -0.095786 -0.005428 -0.019305 0.027532 -0.219578 -0.099892 -0.041316 -0.022462 0.009551 0.043753 0.050293 -0.083477 -0.067759 -0.038583 -0.073989 -0.083054 -0.127624 -0.057543 -0.001823 -0.020727 -0.019038 0.063630 -0.111269 0.084917 0.068697 0.188200 -0.033582 -0.092818 -0.026020 0.030222 -0.051672 -0.161819 -0.065746 0.047656 0.154599
sent_60 -0.007506 0.216769 -0.018566 -0.041854 -0.021142 0.161670 -0.123766 0.069497 0.066050 -0.024430 0.014360 -0.149969 0.027289 -0.112719 -0.089086 0.030651 0.056027 0.095620 0.046106 -0.072910 -0.035945 0.020784 -0.137074 0.027805 0.054833 0.063823 0.026800 0.054946 -0.145889 -0.106368 -0.022492 0.002860 -0.074434 0.033116 -0.032342 -0.130321 -0.075385 -0.129596 0.052323 0.073376 0.151077 0.075333 -0.080352 0.055503 -0.006481 0.049291 -0.105086 -0.051072 0.010542 0.040734
sent_61 -0.115988 -0.072528 -0.013510 -0.005950 0.122951 -0.146016 0.139937 -0.219358 -0.206677 -0.032574 -0.043061 -0.002351 0.052477 0.215673 0.214657 -0.094620 -0.213941 -0.111199 0.079242 0.060820 0.104670 0.014134 0.250846 0.024515 -0.132932 -0.125717 0.020952 -0.278133 0.233542 0.213793 0.091522 -0.152155 -0.137960 -0.031367 0.082846 0.193165 0.263597 0.037418 0.105739 0.127058 -0.156753 -0.173823 0.036328 -0.006862 -0.138316 -0.038577 -0.080100 -0.042472 -0.124661 -0.025205
sent_62 -0.254871 -0.068790 0.048802 0.054784 -0.067640 -0.080948 0.108705 -0.216104 -0.071436 -0.132071 0.017182 0.258819 -0.048164 0.156387 0.181622 -0.229230 0.004729 -0.098307 -0.055722 -0.110124 0.012281 -0.012747 0.197046 0.083556 -0.002979 -0.202137 -0.060734 -0.201706 0.103247 -0.016108 -0.128023 -0.131149 -0.116053 -0.053526 0.044957 0.121472 0.146339 -0.054572 -0.041136 0.182822 0.035525 -0.012136 0.017786 -0.098840 0.117859 -0.008940 -0.083698 -0.013191 0.154965 0.041647
sent_63 0.160065 0.012995 -0.082063 0.041982 -0.146909 0.044534 -0.194064 0.088722 0.093479 -0.030844 -0.042117 -0.108849 -0.021819 -0.094542 -0.133475 0.072087 0.105915 0.086323 -0.090163 -0.056971 0.026036 -0.020398 -0.221273 -0.051929 0.164778 0.181396 -0.098522 0.160061 -0.086276 -0.129703 -0.093556 0.045074 -0.004319 0.026845 -0.118572 -0.112439 -0.136121 -0.023187 -0.043230 -0.164694 0.146580 0.036782 -0.087092 0.097485 0.084582 0.053788 -0.019404 0.029501 0.016399 0.037607
sent_64 0.134669 -0.144427 -0.334300 0.020746 0.052727 -0.245045 -0.121606 -0.268771 -0.118113 -0.058754 0.001003 0.178965 0.019233 0.146028 0.408509 -0.003087 -0.081836 -0.121283 -0.066665 -0.176364 0.074032 -0.220695 -0.035737 -0.026065 0.060929 0.097545 -0.280388 -0.000363 0.055438 0.196565 -0.189279 -0.221424 0.063254 0.189848 -0.080014 0.113478 0.142661 0.005026 0.152443 -0.400129 -0.021962 -0.083560 -0.188924 0.129474 -0.244189 -0.152426 0.050910 0.063428 -0.196358 -0.011519
sent_65 0.012844 -0.026573 -0.046138 0.027122 -0.006132 -0.003666 -0.003363 -0.071746 -0.059162 -0.005036 -0.021154 0.009257 -0.010163 0.046069 0.082409 -0.006046 -0.028923 -0.014499 0.000175 -0.032178 0.039336 -0.008224 0.063925 -0.003189 0.012901 0.030396 -0.089872 0.003334 0.010069 0.038447 -0.055633 -0.064568 -0.021383 0.003172 -0.016552 -0.039573 0.047617 -0.053543 -0.020512 -0.005407 0.059881 -0.001493 -0.035015 0.009066 -0.022217 -0.036047 -0.059953 -0.021669 -0.001565 0.015775
sent_66 0.226096 -0.108123 -0.116555 -0.022166 -0.058657 -0.047142 -0.154940 0.042587 -0.011318 0.016836 -0.110423 -0.201736 -0.003995 0.027678 -0.036136 0.089767 -0.035618 0.139735 -0.153658 0.087069 0.065477 0.043930 -0.079989 -0.044273 0.094847 0.170134 -0.078250 0.215918 -0.008750 0.058320 -0.063159 0.033297 0.010731 0.057250 -0.045057 -0.105349 -0.079633 -0.029874 -0.013311 -0.246211 0.000326 -0.046608 -0.091340 0.212577 -0.123155 0.040253 -0.024098 0.092241 -0.078584 -0.164090
sent_67 -0.254303 -0.078775 -0.101247 0.055445 0.095788 -0.116050 0.287017 -0.267338 -0.156589 -0.092954 0.154585 0.490899 -0.073960 0.168522 0.356831 -0.142061 -0.067537 -0.204104 0.041126 -0.180564 -0.091795 -0.180848 0.238423 0.020484 -0.136773 -0.194157 -0.085806 -0.110393 0.164783 0.114946 -0.187465 -0.078861 -0.009493 -0.055008 0.041119 0.308479 0.132912 0.007396 0.077136 0.128991 -0.049578 0.027015 0.113497 -0.194101 0.154043 -0.145504 0.064801 -0.047444 0.089375 0.067485
sent_68 -0.199617 0.082300 0.089911 -0.008612 0.054549 0.030686 0.093225 -0.066090 0.028722 -0.059004 0.143134 0.188647 -0.010063 -0.042925 0.091366 -0.125360 0.055124 -0.130503 0.141588 -0.098843 -0.081660 -0.075788 0.093715 0.075517 -0.058179 -0.163789 0.003672 -0.176104 -0.006463 -0.046636 0.005069 -0.048235 -0.027549 0.010946 0.043412 0.098360 0.068428 -0.009775 0.065631 0.168572 0.005183 0.014028 0.069387 -0.128496 0.080974 -0.067233 0.024211 -0.046758 0.051846 0.152626
sent_69 -0.263505 -0.035357 0.018034 0.038939 0.097520 -0.111268 0.161870 -0.192481 -0.104334 -0.069642 0.123480 0.295452 -0.059611 0.099710 0.287581 -0.210986 -0.014608 -0.188002 0.115574 -0.121882 -0.080890 -0.078912 0.232339 0.079001 -0.117405 -0.201402 -0.025494 -0.256099 0.127807 0.083993 -0.050224 -0.111085 -0.018065 -0.006885 0.062849 0.226160 0.175784 0.003762 0.100082 0.141729 -0.046606 -0.029692 0.083334 -0.139081 0.069980 -0.130896 0.044719 -0.012209 0.039129 0.109962
sent_70 0.001067 0.015826 -0.002979 -0.009466 -0.017105 0.023327 -0.031859 0.023944 0.026927 0.009683 0.016099 -0.015546 0.004883 -0.027052 -0.001419 -0.000059 0.005869 0.008192 0.025204 -0.001863 -0.004414 -0.012983 -0.046595 0.013245 0.026531 -0.003889 -0.009171 0.023440 -0.027553 -0.014750 -0.005079 0.013260 0.022573 0.030147 0.002232 -0.022441 -0.003856 -0.014616 -0.009900 -0.041940 0.007079 0.020688 -0.011638 -0.000951 0.006505 -0.008230 0.023626 0.002320 0.003164 0.015413
sent_71 0.073027 -0.158892 -0.027197 0.128052 0.004308 -0.206052 -0.017413 -0.043970 -0.061665 0.018213 -0.040701 0.022186 -0.015528 0.159552 0.133020 -0.106424 -0.004610 -0.021598 -0.190416 -0.062788 0.024523 0.044778 -0.029198 -0.065092 -0.056479 0.036924 -0.049010 -0.022544 0.156903 0.053317 -0.053051 -0.008713 -0.025741 -0.032355 -0.014250 0.152132 0.033824 0.074554 0.038060 -0.127097 -0.073577 -0.052095 -0.022902 0.091879 -0.010126 0.075003 -0.060952 0.131456 -0.053325 -0.112848
sent_72 -0.362571 0.122495 0.239096 0.109081 0.025592 0.076199 0.280679 -0.023857 0.004761 -0.071672 0.217086 0.344502 -0.069184 -0.085502 -0.050456 -0.192683 0.109633 -0.271405 0.287262 -0.124092 -0.070480 -0.124318 0.177122 0.048515 -0.108556 -0.263000 0.024332 -0.260974 0.058636 -0.190741 0.097963 0.066888 -0.062625 -0.180371 0.065793 0.205961 0.041529 0.065838 -0.042073 0.407640 0.052026 0.099719 0.249966 -0.337742 0.375098 -0.048737 0.060434 -0.130488 0.192217 0.289643
sent_73 0.031753 -0.211167 -0.095366 0.105356 -0.006896 -0.256979 -0.025049 -0.088272 -0.063861 -0.000743 -0.014684 0.097996 -0.000395 0.153273 0.192600 -0.093692 -0.000529 -0.018214 -0.205264 -0.017528 0.023787 0.005016 -0.008972 -0.014160 -0.012282 -0.019957 -0.090891 0.023610 0.180861 0.124029 -0.098524 0.001994 0.050412 0.058297 -0.030143 0.154732 0.032237 0.092364 0.008222 -0.212599 -0.102430 0.022212 -0.011201 0.098271 -0.020284 0.030318 0.041420 0.152544 -0.026017 -0.151445
sent_74 -0.352652 0.005448 0.007700 0.114902 0.192710 -0.205086 0.349831 -0.378578 -0.329570 -0.005527 0.165414 0.472889 -0.049380 0.211426 0.461095 -0.231518 -0.150195 -0.408213 0.258534 -0.241587 -0.037985 -0.137359 0.312423 -0.009323 -0.183393 -0.227353 -0.118322 -0.418656 0.294269 0.129025 0.046646 -0.214982 -0.051701 -0.062010 0.037778 0.336046 0.347421 0.065185 0.065528 0.239938 -0.089259 -0.081187 0.057637 -0.199842 0.041490 -0.183732 -0.010545 -0.163549 -0.016644 0.262192
sent_75 -0.658564 0.109289 0.114853 0.141751 0.215920 -0.007192 0.516751 -0.464874 -0.325820 -0.100126 0.252295 0.659770 -0.076163 0.157478 0.532835 -0.413091 -0.151624 -0.504777 0.436787 -0.399678 -0.173054 -0.178839 0.490678 0.072895 -0.267932 -0.357562 -0.068007 -0.603558 0.265486 -0.009563 0.027720 -0.293776 -0.146808 -0.183240 0.097896 0.335455 0.468881 -0.030901 0.093109 0.615566 0.084382 -0.059554 0.168144 -0.478612 0.265664 -0.292036 -0.124944 -0.285913 0.185518 0.492937
sent_76 -0.302264 -0.076427 -0.034811 0.128862 0.162734 -0.190688 0.278987 -0.333494 -0.291401 -0.073927 0.053523 0.430609 -0.079627 0.238231 0.468640 -0.251342 -0.096189 -0.265330 0.073346 -0.213758 -0.118908 -0.015610 0.289717 0.013886 -0.187059 -0.115073 -0.095779 -0.227153 0.205310 0.075288 -0.054339 -0.177165 -0.048816 -0.038252 0.035209 0.222197 0.239102 0.015710 -0.008795 0.192008 0.005255 -0.042722 0.059061 -0.133835 0.045638 -0.117770 -0.082498 -0.047376 0.067555 0.170157
sent_77 0.127166 0.039250 0.013919 -0.018114 -0.064197 0.077463 -0.107795 0.123923 0.114962 0.036381 -0.100151 -0.185022 0.013657 -0.067553 -0.193143 0.077667 0.045300 0.120502 -0.081338 0.099561 0.036229 0.076981 -0.154932 -0.015815 0.054334 0.106460 0.057742 0.151810 -0.141746 -0.050908 0.047717 0.037435 0.007735 0.004990 -0.018811 -0.131550 -0.119706 -0.007737 -0.011959 -0.063426 0.052701 0.039662 -0.043016 0.078676 -0.038120 0.091138 -0.023642 0.050217 0.029666 -0.063809
sent_78 0.046692 -0.264153 -0.174478 0.080569 0.097766 -0.276699 0.081102 -0.157284 -0.186289 0.040481 -0.016321 0.131670 0.057365 0.265482 0.281675 -0.022586 -0.189346 -0.078299 -0.104011 0.029118 0.088699 -0.051011 0.087240 -0.025900 -0.118819 -0.034545 -0.156970 0.040187 0.296757 0.264780 -0.053252 -0.052907 0.094320 0.044141 -0.038010 0.190746 0.163279 0.152697 -0.001955 -0.245736 -0.207008 -0.024386 -0.020427 0.050393 -0.102498 -0.029812 0.045788 0.121592 -0.144083 -0.194055
sent_79 0.069235 0.066844 -0.101438 -0.057856 -0.017681 0.100809 -0.100902 0.001742 0.003639 -0.022380 -0.048200 -0.134475 0.007155 -0.019186 0.008800 0.034177 -0.064483 0.075733 0.008415 -0.033724 0.013148 0.031422 -0.035876 0.001270 0.062312 0.122225 -0.087893 0.117153 -0.104709 -0.001774 -0.069462 -0.058549 -0.037665 0.064266 -0.047575 -0.165417 0.003352 -0.128334 -0.001663 -0.062484 0.080691 -0.001819 -0.108258 0.101538 -0.082090 0.007535 -0.096490 -0.038094 -0.038586 -0.020322
sent_80 -0.029114 -0.006242 -0.018176 0.002764 0.031588 -0.018458 -0.001333 -0.051830 -0.007818 -0.015269 -0.002103 0.016235 0.003972 0.035176 0.089743 -0.056362 -0.005515 -0.032016 0.013329 -0.028621 -0.002442 -0.012390 0.019107 0.034148 -0.027251 -0.029463 -0.019486 -0.068185 -0.003379 0.025824 0.001631 -0.086604 -0.001671 0.037235 0.006521 0.015456 0.073989 -0.026958 0.034832 -0.013747 -0.013657 -0.044223 -0.039235 0.003177 -0.032491 -0.026013 -0.034009 0.017088 0.000436 0.020935
sent_81 0.135522 -0.087730 -0.075356 -0.019205 -0.024153 -0.080414 -0.124807 0.110121 0.034274 0.008109 -0.084729 -0.199870 0.059176 0.016589 -0.059227 0.096160 0.044432 0.169365 -0.171489 0.127928 0.085746 0.083248 -0.082466 -0.012397 0.012898 0.064422 -0.001588 0.181326 -0.024905 0.086229 -0.061969 0.064999 0.005422 0.089676 -0.036325 -0.041284 -0.109389 -0.001690 -0.004685 -0.155591 -0.057976 0.062504 -0.008323 0.153496 -0.067308 0.095004 0.034779 0.129784 -0.079075 -0.205086
sent_82 0.036920 -0.018770 0.004326 0.006041 -0.021446 -0.010741 -0.020956 0.035658 0.031519 0.021146 -0.023594 -0.051112 0.013545 -0.015847 -0.059823 0.019978 0.017246 0.022663 -0.033616 0.029560 0.020212 0.016728 -0.049184 -0.005655 0.013217 0.016129 0.012774 0.029477 -0.003391 -0.013894 0.023987 0.023133 -0.000067 -0.008892 -0.010646 -0.016697 -0.034439 0.015177 -0.018580 -0.031252 -0.015225 0.011232 -0.006855 0.030874 0.012816 0.039519 0.008651 0.031708 0.003313 -0.025854
sent_83 -0.235164 0.132799 0.159067 0.035119 0.098219 0.065730 0.212438 -0.038262 -0.088138 0.006695 0.041403 0.165369 -0.091474 -0.087925 0.032847 -0.167572 0.064904 -0.123885 0.135323 -0.070780 -0.112709 0.028382 0.182416 0.001459 -0.096730 -0.087533 0.071140 -0.127539 -0.036550 -0.163683 0.090069 -0.076371 -0.077360 -0.092691 0.072713 0.014915 0.043114 -0.044377 0.009051 0.326136 0.042888 -0.001272 0.114916 -0.148757 0.123117 0.000774 -0.108215 -0.108257 0.158387 0.200873
sent_84 0.043199 0.025895 -0.142638 -0.004077 -0.002001 -0.023125 -0.119590 -0.048144 0.039001 -0.048842 0.101871 0.040825 -0.014990 -0.078197 0.105418 0.066768 0.066433 0.009100 0.008489 -0.100268 -0.006740 -0.142837 -0.167460 0.011328 0.121031 0.069098 -0.153118 0.140143 -0.032868 0.031562 -0.168586 0.014721 0.026969 0.152382 -0.069915 0.013093 -0.058277 -0.046880 0.045109 -0.196026 0.059884 0.054507 -0.083968 0.082023 -0.011510 -0.076377 0.098835 -0.020420 -0.049907 0.029513
sent_85 -0.359754 0.107503 0.191096 0.114438 0.077963 -0.060170 0.233197 -0.022828 -0.044747 0.017662 0.144960 0.321406 0.033222 -0.073842 0.087519 -0.174149 0.148643 -0.218835 0.209842 -0.103226 -0.065755 -0.063140 0.133046 0.059609 -0.173873 -0.263158 0.181119 -0.396326 0.135599 -0.076020 0.153625 -0.077005 -0.034127 -0.083258 0.031984 0.269447 0.117023 0.074093 0.059955 0.363859 -0.076666 0.084982 0.207953 -0.320525 0.249634 -0.065685 -0.000567 -0.073483 0.125351 0.257334
sent_86 -0.183677 0.115246 0.007893 -0.017931 -0.026044 0.141992 -0.029332 -0.074046 0.026868 -0.244509 -0.054275 -0.146032 -0.010689 0.067424 0.004918 -0.315601 0.014184 0.038562 -0.008748 0.060691 0.041843 0.171497 0.034059 0.108276 0.059797 -0.097455 0.007654 -0.127737 -0.041097 -0.153490 -0.079142 -0.154875 -0.302570 0.005404 0.063832 0.094906 0.027399 -0.090150 0.072318 0.274482 0.055172 -0.096303 0.032086 0.006995 0.048198 0.057343 -0.207424 -0.043702 0.132221 0.120021
sent_87 0.045914 -0.019449 -0.006806 -0.002002 0.001346 -0.014004 -0.016506 0.019699 0.018070 -0.002153 -0.006963 -0.026543 0.006717 -0.004305 -0.029962 0.006698 0.003303 0.019472 -0.029077 0.018900 0.011024 0.011804 -0.019691 -0.000130 0.014914 0.017503 -0.000386 0.024350 0.003027 0.008044 -0.003319 0.017742 0.007173 0.007854 0.001650 -0.005408 -0.022316 -0.003179 0.003133 -0.026054 -0.018047 -0.005632 0.006034 0.026807 -0.010173 0.009372 0.008977 0.029522 -0.016127 -0.043681
sent_88 0.394237 -0.199686 -0.219997 -0.090289 -0.036440 -0.111227 -0.268779 0.030012 0.051231 0.025946 -0.237236 -0.316990 0.022739 0.130327 -0.004057 0.129706 -0.101231 0.218110 -0.313966 0.190749 0.094734 0.087776 -0.183549 -0.045688 0.118426 0.236044 -0.050208 0.313481 -0.056071 0.112837 -0.095141 -0.003694 0.078190 0.135825 -0.018271 -0.103144 -0.095350 -0.016559 0.020847 -0.485053 -0.143259 -0.140555 -0.202527 0.336134 -0.352583 0.089579 -0.011942 0.193437 -0.173707 -0.375959
sent_89 0.351580 -0.107223 -0.112417 -0.060441 -0.073293 -0.033799 -0.217361 0.116127 0.078928 0.017297 -0.177032 -0.300568 0.013474 0.036522 -0.187733 0.133028 -0.020729 0.214168 -0.275297 0.173793 0.100323 0.080481 -0.196144 -0.064632 0.107452 0.215040 0.004540 0.273076 -0.053911 0.005662 -0.036121 0.083730 0.019463 0.058040 -0.028426 -0.090585 -0.165813 0.018902 0.022380 -0.324323 -0.095349 -0.104448 -0.116221 0.262014 -0.186551 0.140776 -0.019999 0.148461 -0.115031 -0.293937
sent_90 -0.156322 -0.137728 -0.075549 0.187651 0.025978 -0.221738 0.052039 -0.150400 -0.136853 -0.002921 0.075383 0.277817 -0.058298 0.183330 0.321712 -0.194330 -0.015845 -0.087752 -0.114287 -0.214452 -0.103116 0.001553 0.037359 -0.004640 -0.108500 -0.048973 -0.070482 -0.047795 0.249664 0.070229 -0.166779 -0.048383 0.013709 0.004525 -0.038322 0.176675 0.085087 0.066473 0.000293 0.015037 0.010882 0.061899 -0.002639 -0.019705 0.127984 0.016217 -0.043543 0.062519 0.076720 0.058681
sent_91 -0.155984 -0.129479 -0.102973 -0.003097 0.141017 -0.184496 0.139583 -0.310454 -0.228723 -0.031082 0.007904 0.215857 -0.062120 0.199910 0.431213 -0.136632 -0.152854 -0.145435 0.034577 -0.120859 -0.074565 -0.021887 0.267269 0.046314 -0.109307 -0.069212 -0.104277 -0.075720 0.159600 0.180238 -0.086968 -0.164079 0.018351 0.054827 0.032341 0.103104 0.216589 -0.019348 0.032034 0.006027 -0.062717 -0.045474 -0.032165 0.008122 -0.142575 -0.104652 -0.024037 -0.017830 -0.021026 0.011795
sent_92 -0.175129 -0.115350 -0.067375 0.018474 0.115003 -0.149795 0.127237 -0.214927 -0.180722 0.003960 0.079789 0.223410 -0.031834 0.150402 0.276673 -0.026995 -0.074256 -0.093140 0.071273 -0.047462 -0.082566 -0.014250 0.140340 0.055866 -0.123851 -0.109346 -0.104346 -0.043395 0.154219 0.206812 -0.053192 -0.039181 0.086325 0.090227 0.042455 0.142797 0.119878 0.076172 -0.029027 0.026562 -0.047867 0.060689 0.055387 -0.072920 -0.091026 -0.111703 0.106977 0.028450 -0.012494 -0.033917
sent_93 -0.185234 -0.121974 -0.103143 0.057618 0.141677 -0.217621 0.231192 -0.281982 -0.217172 0.017439 0.032479 0.341749 -0.037758 0.219818 0.388572 -0.124309 -0.129147 -0.197703 0.017895 -0.106715 -0.038501 -0.077868 0.208778 -0.022151 -0.148050 -0.105025 -0.077224 -0.123559 0.202622 0.167138 -0.055268 -0.152826 0.031846 -0.007523 0.000638 0.211477 0.204672 0.042308 0.048563 0.027266 -0.129014 -0.018996 0.018938 -0.104751 -0.030336 -0.111478 0.028542 -0.047309 -0.019109 -0.005042
sent_94 -0.030470 -0.194663 -0.155367 0.059146 0.093368 -0.228191 0.102898 -0.256582 -0.172865 0.006664 -0.066283 0.180936 -0.048316 0.256656 0.375691 -0.071176 -0.135264 -0.057442 -0.125444 -0.050874 -0.030474 -0.014734 0.146845 -0.008368 -0.110250 0.017067 -0.070408 0.034398 0.155475 0.177629 -0.142781 -0.122278 0.049824 0.028654 -0.000828 0.119865 0.124258 0.016139 0.029119 -0.123272 -0.103354 -0.038520 -0.059930 0.050535 -0.159789 -0.057743 -0.001130 0.060178 -0.055241 -0.155235
sent_95 0.138280 -0.141140 -0.102533 0.054475 -0.005750 -0.125816 -0.056430 0.008563 -0.026197 0.021336 -0.097612 -0.080193 0.015702 0.108058 0.030669 0.010303 -0.030122 0.096921 -0.187425 0.091359 0.089594 0.055013 -0.039577 -0.035231 -0.015241 0.073572 -0.019160 0.108085 0.068609 0.108738 -0.039341 0.013531 0.004143 0.035036 -0.013780 0.051458 -0.030416 0.080240 0.024204 -0.163659 -0.043876 -0.011041 -0.038590 0.124690 -0.093943 0.051373 -0.010106 0.136449 -0.066216 -0.167328
sent_96 -0.221943 -0.198047 -0.115744 0.146369 0.097709 -0.283814 0.172821 -0.258238 -0.214859 -0.038925 0.086707 0.377232 -0.011531 0.263140 0.468055 -0.193403 -0.106345 -0.186927 -0.059218 -0.211044 -0.075793 -0.109025 0.212185 -0.013435 -0.183338 -0.139349 -0.109834 -0.149391 0.332585 0.148094 -0.166519 -0.146386 0.033912 -0.015923 -0.049896 0.290375 0.208087 0.118080 0.042420 0.028359 -0.093305 0.008954 0.043961 -0.110404 0.079569 -0.105498 0.017203 0.023128 -0.015563 0.089064
sent_97 -0.577778 0.280192 0.282003 0.017349 0.134985 0.150641 0.371345 -0.180410 -0.094516 -0.062657 0.202524 0.383963 -0.063597 -0.055116 0.145987 -0.268851 0.033105 -0.327470 0.422189 -0.231895 -0.183151 -0.054269 0.347352 0.096959 -0.213150 -0.336784 0.120639 -0.522959 0.028249 -0.129294 0.132745 -0.164199 -0.140445 -0.171770 0.102837 0.113812 0.254681 -0.071012 0.045785 0.669764 0.106321 0.045627 0.191333 -0.404944 0.244558 -0.139516 -0.083026 -0.278033 0.215152 0.461817
sent_98 -0.337383 0.118422 0.165270 0.042679 0.072982 0.080512 0.238472 -0.106792 -0.077955 -0.054867 0.143478 0.260336 -0.013780 -0.015572 0.094284 -0.173013 -0.009293 -0.216391 0.259035 -0.137888 -0.096016 -0.064790 0.229132 0.052912 -0.126842 -0.220186 0.050178 -0.329362 0.070212 -0.065806 0.058700 -0.088897 -0.085206 -0.135981 0.057622 0.116307 0.177952 -0.017297 0.021703 0.390682 0.056938 0.012209 0.128671 -0.268341 0.191351 -0.108559 -0.046901 -0.159249 0.088403 0.271711
sent_99 -0.286261 0.284583 0.196018 -0.017915 0.009420 0.253245 0.144441 0.088868 0.085805 -0.071829 0.118535 0.122258 -0.052255 -0.199859 -0.132304 -0.076339 0.139094 -0.096702 0.250841 -0.132737 -0.193491 -0.035724 0.047100 0.031643 -0.014049 -0.098535 0.105772 -0.157807 -0.137869 -0.306973 0.071199 0.026220 -0.110553 -0.142583 0.017937 -0.013158 -0.041600 -0.099282 -0.013224 0.445588 0.131130 0.079224 0.111613 -0.256110 0.297414 -0.012986 -0.064517 -0.196908 0.198951 0.333268
sent_100 -0.250519 0.092538 0.097031 0.055440 0.051454 0.045297 0.180361 -0.097893 -0.082038 -0.023570 0.124674 0.229943 -0.046958 -0.027274 0.096548 -0.117070 -0.018740 -0.168285 0.184123 -0.144876 -0.082806 -0.064111 0.144468 0.044405 -0.076537 -0.133446 -0.002526 -0.218048 0.066220 -0.063189 0.045231 -0.059838 -0.049295 -0.078332 0.041611 0.088039 0.136165 0.001257 -0.006561 0.262111 0.052902 0.030527 0.078797 -0.211631 0.164748 -0.091197 -0.026643 -0.117048 0.108111 0.211946
sent_101 0.042824 0.006570 -0.020137 -0.020163 -0.000537 0.028313 -0.046715 0.021227 0.013079 0.030523 -0.027780 -0.061977 0.011466 -0.020993 -0.015868 0.027215 -0.006631 0.025502 -0.017268 -0.007018 -0.000349 0.008733 -0.035689 -0.010783 0.030846 0.039419 -0.011600 0.047891 -0.041778 -0.006757 -0.001370 -0.023977 0.010017 0.002618 -0.025269 -0.070854 -0.005540 -0.032107 0.011075 -0.043251 0.014853 0.004856 -0.051586 0.031089 -0.021523 0.013001 -0.041584 -0.006268 -0.025319 -0.013437
sent_102 -0.490299 0.208831 0.176094 0.062087 0.135700 0.105529 0.349829 -0.233979 -0.165696 -0.099162 0.239026 0.487022 -0.060780 0.003380 0.243816 -0.274284 -0.031249 -0.352941 0.404201 -0.316822 -0.196436 -0.130161 0.344743 0.085060 -0.157444 -0.259457 -0.016431 -0.439950 0.094137 -0.115494 0.031410 -0.176636 -0.116908 -0.132831 0.060344 0.141414 0.270345 -0.056883 0.004982 0.526831 0.129384 -0.000693 0.130857 -0.397379 0.275108 -0.214776 -0.092506 -0.264200 0.136925 0.461902
sent_103 -0.343987 0.120489 0.080947 0.037655 0.122651 0.032125 0.254987 -0.176876 -0.127200 -0.010163 0.154772 0.366883 -0.045173 0.000794 0.239519 -0.145823 -0.022322 -0.238268 0.229446 -0.216071 -0.139928 -0.103909 0.202336 0.047981 -0.121691 -0.165275 -0.013178 -0.242249 0.081590 -0.047163 0.030872 -0.121902 -0.005522 -0.038902 0.050104 0.129869 0.169904 -0.029056 0.016308 0.298007 0.021681 0.049635 0.085864 -0.255788 0.135033 -0.117340 -0.010122 -0.162462 0.108831 0.262868
sent_104 -0.507482 -0.078133 0.109052 0.065130 0.189745 -0.161188 0.471685 -0.327510 -0.276827 -0.071187 0.125204 0.503914 -0.044946 0.264090 0.371747 -0.316572 -0.149980 -0.313374 0.185366 -0.079658 -0.129853 -0.029003 0.489663 0.064760 -0.325910 -0.372351 -0.001176 -0.414653 0.312623 0.131161 0.015868 -0.138705 -0.060874 -0.155834 0.099135 0.352955 0.338021 0.093482 0.002110 0.467070 -0.104375 -0.023649 0.203410 -0.338565 0.188426 -0.169534 0.012084 -0.074662 0.085368 0.124987
sent_105 0.131557 -0.073254 -0.053206 -0.007617 -0.042413 -0.071435 -0.084257 0.065241 0.016056 0.007397 -0.047150 -0.076523 0.028084 0.011750 -0.068091 0.054489 0.020330 0.095802 -0.127833 0.063014 0.059425 0.019164 -0.052207 -0.032472 0.045440 0.051632 -0.025953 0.114574 0.015292 0.020066 -0.051106 0.049572 0.017993 0.046288 -0.056215 -0.037441 -0.081717 0.037866 -0.068453 -0.129249 -0.025257 0.006595 -0.013793 0.104771 0.006463 0.047987 0.040154 0.061944 -0.050313 -0.111031
sent_106 -0.112420 0.080094 0.066333 -0.060675 0.038693 0.058040 0.080567 0.001945 0.009776 -0.013023 0.027033 0.020375 0.003185 -0.047216 0.001054 -0.019469 0.002296 -0.027887 0.086857 0.001727 -0.032470 -0.003231 0.089523 0.031583 -0.042645 -0.061525 0.055990 -0.052054 -0.038289 -0.012128 0.033319 -0.010429 -0.015528 -0.011252 0.045103 -0.015923 0.017369 -0.042503 0.010713 0.126356 -0.008456 0.016096 0.051841 -0.044270 -0.003305 -0.010143 -0.000965 -0.059289 0.014459 0.022632
sent_107 -0.132588 0.143320 0.089753 0.029864 -0.007488 0.113071 0.061207 0.025937 0.012760 -0.004809 0.097753 0.117276 -0.008493 -0.094725 -0.034319 -0.061124 0.028856 -0.086343 0.133974 -0.126934 -0.063710 -0.042171 0.006898 0.024632 -0.015029 -0.053430 0.015306 -0.087863 -0.028825 -0.129674 0.038685 -0.011295 -0.032361 -0.039247 -0.005810 -0.022683 0.018739 -0.023690 -0.013241 0.158947 0.087712 0.040718 0.039513 -0.126891 0.144824 -0.027695 -0.031253 -0.086854 0.082130 0.175492
sent_108 -0.032169 0.029503 0.027311 -0.014190 0.027360 0.001505 0.037278 -0.024855 -0.041029 -0.000114 -0.002421 -0.001720 0.003847 -0.008521 0.026825 -0.021699 -0.019234 -0.045699 0.064467 0.003707 0.006307 -0.000460 0.106745 0.013273 -0.034486 -0.014713 -0.023465 -0.046368 0.006945 0.011618 0.013400 -0.049958 -0.023531 -0.032647 -0.007810 -0.049907 0.062323 -0.036898 -0.011149 0.054120 0.012083 -0.004809 0.004231 0.005497 0.011443 -0.031180 -0.023119 -0.033808 -0.031150 0.023661
sent_109 -0.644820 0.143345 0.226723 0.141027 0.155452 -0.009785 0.467338 -0.310679 -0.217509 -0.066959 0.269975 0.669514 -0.068815 0.072255 0.362028 -0.357048 -0.004918 -0.475104 0.399808 -0.333427 -0.202423 -0.158941 0.426215 0.070936 -0.263788 -0.387081 0.016392 -0.616584 0.258603 -0.083754 0.078864 -0.196915 -0.080417 -0.204843 0.078548 0.347085 0.351487 0.044326 0.046455 0.623815 0.056063 0.006863 0.219309 -0.489320 0.350374 -0.225983 -0.042221 -0.241136 0.188231 0.499675
sent_110 -0.107453 0.147724 0.116561 -0.019420 -0.036820 0.146584 0.001809 0.075270 0.096700 -0.022838 0.048074 -0.062434 0.014993 -0.092595 -0.109228 -0.037812 0.050979 0.027307 0.097113 -0.037535 -0.028749 0.039280 -0.014086 0.045181 0.012820 -0.066918 0.064231 -0.074744 -0.076556 -0.087424 0.044512 0.019921 -0.058627 -0.047533 0.030606 -0.062043 -0.008407 -0.074834 0.008816 0.189465 0.103602 0.056479 0.034856 -0.070883 0.080026 0.006413 -0.046530 -0.066336 0.060939 0.110738
sent_111 -0.006397 0.141364 0.157085 -0.045097 -0.070297 0.200574 0.010179 0.197986 0.134937 -0.037324 -0.013890 -0.120714 0.024336 -0.138705 -0.310807 0.008768 0.078424 0.066521 0.013685 0.075620 -0.046956 0.065101 -0.040908 0.012405 0.004871 -0.037182 0.152942 -0.012694 -0.140177 -0.232407 0.065456 0.109481 -0.065929 -0.115678 0.021505 -0.102963 -0.128871 -0.055320 -0.048352 0.210754 0.054732 0.021450 0.095435 -0.079282 0.156168 0.079090 -0.098855 -0.028360 0.078356 0.053547
sent_112 -0.235240 0.359815 0.201176 -0.105961 -0.010218 0.394468 0.071484 0.045223 0.154374 -0.019527 0.085520 -0.046964 -0.018928 -0.237360 -0.127337 -0.055395 0.036024 -0.042119 0.297028 -0.119011 -0.099454 0.028353 0.098220 0.082147 0.021359 -0.041625 0.095757 -0.111723 -0.255909 -0.226100 0.082579 -0.060350 -0.076886 -0.076421 0.066788 -0.254283 0.051654 -0.240350 0.043162 0.356981 0.221658 0.069286 0.038692 -0.133627 0.085820 -0.036474 -0.153057 -0.215114 0.160524 0.261338
sent_113 0.193169 -0.090653 -0.109915 0.024515 -0.080156 -0.053716 -0.161555 0.065590 0.029311 0.025503 -0.041566 -0.151232 0.019936 0.009601 -0.035991 0.085178 0.000034 0.135096 -0.154457 0.010816 0.082941 -0.010488 -0.125509 -0.048789 0.089642 0.124936 -0.078230 0.174328 0.027848 0.041158 -0.073096 0.072928 0.022480 0.054436 -0.057473 -0.065987 -0.071959 0.022081 -0.028112 -0.198676 0.020907 0.021225 -0.066774 0.136526 -0.016064 0.046204 0.027449 0.066467 -0.054856 -0.133574
sent_114 0.209915 -0.089160 -0.080772 -0.040157 -0.048791 -0.034771 -0.150798 0.113569 0.073602 0.014574 -0.108922 -0.257213 0.020785 0.018773 -0.113376 0.103382 0.031755 0.193354 -0.196820 0.146658 0.056408 0.058566 -0.115743 -0.027606 0.045879 0.124596 0.000824 0.191224 -0.036515 0.059196 -0.047893 0.072956 0.016761 0.035641 -0.027757 -0.068277 -0.107013 -0.003300 0.034877 -0.201095 -0.038882 0.001552 -0.053014 0.166655 -0.086751 0.097429 0.013100 0.125579 -0.049194 -0.231300
sent_115 0.211028 0.027474 -0.000308 -0.065803 -0.116906 0.119754 -0.232042 0.215341 0.179311 0.018225 -0.104945 -0.365122 0.027824 -0.102832 -0.275507 0.128526 0.088823 0.243188 -0.130767 0.148954 0.061459 0.127259 -0.173501 -0.009496 0.120776 0.131367 0.030711 0.214588 -0.185326 -0.047318 -0.017266 0.121495 -0.019799 0.036525 -0.039264 -0.217073 -0.177324 -0.063252 -0.001653 -0.142327 0.077136 0.051712 -0.069694 0.188235 -0.045027 0.113349 -0.014810 0.071911 -0.019010 -0.142145
sent_116 0.237677 -0.165634 -0.272414 -0.058926 0.045476 -0.136877 -0.118662 -0.140788 -0.090997 0.006494 -0.078104 -0.102742 0.050892 0.194125 0.162409 0.132581 -0.197669 0.102612 -0.164888 0.037711 0.065485 -0.025281 -0.107745 -0.026969 0.043943 0.152509 -0.160376 0.262242 0.071561 0.198109 -0.145498 -0.023836 0.063938 0.133890 -0.060108 0.015925 0.021156 0.017943 0.016676 -0.350888 -0.163084 -0.071157 -0.172188 0.185474 -0.236711 0.014137 0.027115 0.092804 -0.172483 -0.291723
sent_117 -0.051161 0.130235 0.101922 0.044008 -0.046922 0.129193 -0.003366 0.131972 0.079414 -0.003503 0.066307 0.017492 -0.030166 -0.155311 -0.128420 -0.039256 0.130656 0.006755 0.039240 -0.078261 -0.084349 -0.007897 -0.073858 -0.002786 0.027475 0.015881 0.052919 0.001409 -0.075807 -0.187763 0.012195 0.058872 -0.041494 -0.060814 -0.023202 -0.032587 -0.088387 -0.037965 0.006287 0.137333 0.122884 0.065181 0.048360 -0.077022 0.186594 0.025502 -0.044729 -0.047697 0.114140 0.139913
sent_118 0.402809 -0.102025 -0.101997 -0.105202 0.167072 -0.350743 -0.244382 -0.024027 0.009208 0.161699 -0.050841 -0.142099 0.465257 0.199750 0.009402 0.246032 -0.249356 0.048163 0.084756 0.097779 0.267302 -0.252764 -0.153416 0.076321 -0.106606 -0.132177 0.244066 -0.381112 0.245788 0.438826 0.277612 -0.105078 0.089855 0.232519 -0.075299 0.152191 0.286368 0.214823 0.122678 -0.412933 -0.545960 -0.269763 -0.163063 0.083291 -0.480136 0.001829 0.032758 0.137279 -0.629468 -0.253116
sent_119 0.409156 -0.165637 -0.225499 -0.048351 0.149634 -0.309161 -0.203953 -0.047595 -0.027448 0.158736 -0.159140 -0.328740 0.369439 0.211732 0.116845 0.301024 -0.277015 0.094379 -0.101679 0.068266 0.297044 -0.054369 -0.267722 0.002400 -0.103680 0.073919 0.093423 0.011217 0.156466 0.415952 0.116695 -0.068136 0.091092 0.182949 -0.053318 0.031107 0.171165 0.139185 0.150584 -0.481536 -0.441548 -0.081259 -0.207401 0.270481 -0.573626 0.130979 -0.022549 0.134877 -0.514552 -0.423180
sent_120 0.353894 -0.133991 -0.210646 -0.149144 0.166940 -0.136163 -0.011139 -0.227956 -0.269704 0.125607 -0.252464 -0.078433 0.091044 0.230893 0.220515 0.138178 -0.338753 -0.006627 -0.102062 0.050086 0.109770 -0.039586 0.121370 -0.087174 -0.078153 0.208416 -0.020040 -0.028902 0.028074 0.206342 0.088136 -0.265261 0.015373 0.020939 -0.002892 -0.080284 0.217934 -0.042309 0.183786 -0.280152 -0.211416 -0.403621 -0.240868 0.255777 -0.572131 -0.119766 -0.229849 0.009885 -0.352624 -0.186661
sent_121 0.277638 -0.065881 -0.074796 -0.039191 -0.085488 0.007567 -0.206189 0.161154 0.101685 0.031541 -0.141764 -0.311749 0.013264 -0.012445 -0.171984 0.129310 0.008964 0.223394 -0.225588 0.149649 0.075750 0.098248 -0.180195 -0.046628 0.092581 0.172466 0.027591 0.241981 -0.082095 0.012529 -0.031823 0.088199 0.014886 0.049096 -0.022442 -0.131767 -0.161135 -0.022746 -0.000192 -0.238795 -0.016714 -0.020900 -0.085832 0.227057 -0.128609 0.137569 -0.018728 0.123769 -0.063769 -0.225932
sent_122 -0.035949 0.003107 -0.006227 -0.033886 0.124712 -0.065003 0.059059 -0.140069 -0.114438 0.041739 -0.010316 0.077462 0.058543 0.058104 0.158918 -0.004963 -0.097462 -0.094828 0.136693 -0.016381 0.015516 -0.058459 0.127094 0.064936 -0.087977 -0.087575 0.044539 -0.174797 0.030862 0.141311 0.086003 -0.113878 0.031751 0.025667 0.039783 0.037521 0.165707 0.010340 0.056780 0.012189 -0.088202 -0.078498 -0.030016 -0.044869 -0.173154 -0.094479 0.003246 -0.035222 -0.098652 0.024772
sent_123 -0.124120 -0.091951 -0.000673 -0.020448 0.186420 -0.206461 0.146101 -0.154345 -0.127385 0.051244 0.035571 0.133489 0.100037 0.157451 0.192089 0.017362 -0.153651 -0.117637 0.126639 0.095756 0.080454 -0.081776 0.193765 0.080968 -0.199097 -0.273181 0.092080 -0.245140 0.169684 0.264846 0.115957 -0.082094 0.046993 0.014004 0.073292 0.204205 0.216598 0.124764 0.060141 0.051834 -0.253740 -0.063569 0.076571 -0.107660 -0.164213 -0.085278 0.115235 -0.002062 -0.149432 -0.090777
sent_124 0.665660 -0.396386 -0.504367 -0.173420 0.128096 -0.332852 -0.315731 -0.283931 -0.249204 0.170662 -0.439375 -0.403825 0.107381 0.460038 0.372390 0.316056 -0.515414 0.244774 -0.380867 0.212559 0.245561 0.074193 -0.064983 -0.105459 0.058547 0.414512 -0.119863 0.366210 0.079416 0.509201 -0.088827 -0.241385 0.149006 0.231842 -0.062022 -0.201949 0.179911 -0.082602 0.080435 -0.838730 -0.397427 -0.393350 -0.465151 0.599199 -0.902377 0.014158 -0.162931 0.176590 -0.549996 -0.700368
sent_125 0.168220 0.001731 -0.046114 -0.093838 0.032296 0.036964 -0.100099 0.052881 0.007568 0.052822 -0.060015 -0.156005 0.149758 0.008804 -0.016667 0.111931 -0.144684 0.045249 0.023592 0.006960 0.070517 -0.093575 -0.024398 -0.016159 0.002730 0.030032 0.027187 -0.030101 -0.018198 0.064577 0.047136 -0.053005 0.002886 -0.010245 -0.003041 -0.085735 0.107931 -0.055149 0.103266 -0.134294 -0.099874 -0.143046 -0.089258 0.077939 -0.197198 -0.030405 -0.096187 -0.001056 -0.219570 -0.092817
sent_126 0.290353 -0.154754 -0.152951 0.187480 -0.031395 -0.146650 -0.094454 0.062325 -0.094865 0.096280 0.104654 0.095040 0.192953 0.107408 -0.060489 0.113253 -0.149229 -0.015949 -0.136372 -0.118129 0.173636 -0.225675 -0.307210 -0.069290 0.052936 0.022031 -0.048871 0.020032 0.326340 0.054706 -0.004742 0.105628 0.054881 0.020976 -0.110398 0.246484 0.009402 0.265023 0.002411 -0.297625 -0.150566 -0.087301 -0.043790 0.008277 0.085784 0.045352 0.033365 0.106791 -0.171003 -0.049942
sent_127 0.153782 -0.011795 -0.067152 -0.110329 0.074832 -0.064544 -0.137167 0.064837 0.061576 0.123889 0.031047 -0.173680 0.184049 -0.060214 -0.023603 0.254630 -0.064548 0.079738 0.074078 0.050728 0.078307 -0.090909 -0.170241 0.050957 -0.004320 0.004573 0.020022 0.068391 -0.008893 0.229155 0.073700 0.040429 0.120817 0.156655 -0.036279 -0.088266 0.018122 0.069136 0.061493 -0.245975 -0.144115 0.073654 -0.084905 0.054496 -0.218314 0.025058 0.144263 0.022356 -0.177361 -0.157278
sent_128 0.368615 -0.153702 -0.103899 -0.079775 -0.013570 -0.145664 -0.180437 0.073424 0.021195 0.084365 -0.196062 -0.311611 0.186545 0.145935 -0.135655 0.246330 -0.191760 0.224054 -0.174418 0.245910 0.238341 0.034845 -0.135308 -0.030209 -0.017346 0.065804 0.117225 0.062499 0.084214 0.243639 0.082446 0.053378 0.044422 0.066832 -0.017335 -0.016844 0.002782 0.104641 -0.015036 -0.280553 -0.276573 -0.113853 -0.081086 0.195651 -0.338122 0.116357 0.003872 0.126193 -0.314754 -0.374619
sent_129 0.329627 -0.082632 -0.049031 -0.083570 -0.017664 -0.036122 -0.221632 0.197508 0.159963 0.097209 -0.090891 -0.382024 0.202677 -0.024275 -0.241042 0.321395 -0.096717 0.212793 -0.097580 0.234935 0.197638 0.002641 -0.244170 -0.012797 0.016117 0.043021 0.107217 0.137856 -0.043875 0.172874 0.066250 0.145372 0.060864 0.096365 -0.018561 -0.122897 -0.088350 0.096715 0.008256 -0.280895 -0.184225 -0.004698 -0.046878 0.175257 -0.243418 0.118104 0.100199 0.115699 -0.267200 -0.297927
sent_130 0.159976 0.006640 -0.042196 -0.030335 0.005537 -0.006362 -0.153009 0.107518 0.061813 0.079437 0.016219 -0.178677 0.125641 -0.063794 -0.113286 0.184523 -0.034664 0.065921 0.047348 0.046362 0.096483 -0.071227 -0.162295 0.010177 0.035634 -0.013455 0.068605 -0.018026 -0.004903 0.065983 0.093870 0.066053 0.040498 0.074969 -0.044770 -0.028452 -0.004546 0.075309 0.029962 -0.133202 -0.085216 -0.008354 -0.050118 0.015228 -0.093152 0.039445 0.078860 -0.005138 -0.148136 -0.025361
sent_131 0.328155 -0.174882 -0.105639 -0.073351 0.113398 -0.223659 -0.093449 -0.081668 -0.078679 0.170400 -0.154039 -0.190729 0.307016 0.199542 0.012859 0.242449 -0.260104 0.034031 -0.039170 0.182033 0.288167 -0.086942 -0.065606 -0.004861 -0.109134 -0.050070 0.154216 -0.167698 0.150004 0.357599 0.225663 -0.067654 0.085002 0.058582 0.027195 0.108909 0.192511 0.196075 0.134247 -0.282720 -0.346347 -0.181862 -0.100238 0.093399 -0.488393 -0.015626 0.029073 0.086755 -0.413992 -0.270341
sent_132 0.153023 -0.140210 -0.150232 0.057370 0.058129 -0.191255 -0.015989 -0.115901 -0.136056 0.031757 -0.037397 0.147182 0.064236 0.170088 0.127510 0.018911 -0.135935 -0.033683 -0.082949 -0.061113 0.057644 -0.119720 -0.017197 -0.022057 -0.059772 -0.022103 0.014412 -0.123350 0.146269 0.171174 -0.036222 -0.057436 0.040342 0.034462 -0.013680 0.188358 0.117351 0.110976 0.100490 -0.169593 -0.118388 -0.147604 -0.052086 0.019377 -0.142053 -0.060588 -0.012843 0.074006 -0.179959 -0.072343
sent_133 0.084431 -0.137374 -0.054625 0.013482 0.114870 -0.187361 0.021173 -0.091386 -0.081045 0.096976 0.070731 0.111025 0.252905 0.084245 0.118449 0.149703 -0.206729 -0.133295 0.108387 -0.060841 0.157219 -0.264329 -0.005291 -0.013461 -0.164388 -0.193016 0.123331 -0.332378 0.234226 0.251773 0.139203 -0.020196 0.085824 -0.002917 -0.004700 0.246805 0.242764 0.236390 0.185993 -0.088213 -0.236842 -0.140996 0.020805 -0.087727 -0.189663 -0.146733 0.095540 -0.018367 -0.349772 0.020723
sent_134 -0.033234 -0.008788 -0.018552 0.032726 0.018362 -0.042741 0.028164 -0.028943 -0.020764 0.003042 0.030092 0.077288 -0.012297 0.018408 0.057073 -0.015253 0.009158 -0.036421 0.002982 -0.054620 -0.037826 -0.049867 0.000353 -0.002212 -0.015874 -0.021609 -0.025033 -0.034458 0.043550 0.014201 -0.033184 -0.010555 0.009673 -0.001378 -0.020358 0.070882 0.023844 0.024865 0.019215 -0.010613 -0.025147 0.007871 0.008739 -0.043253 0.034361 -0.024518 0.011004 0.008767 0.001562 0.017566
sent_135 -0.104052 -0.263600 -0.178223 0.108168 0.271209 -0.333114 0.283454 -0.394974 -0.415830 0.054867 -0.003699 0.335471 -0.120953 0.318825 0.613354 -0.075805 -0.292150 -0.212536 0.030203 -0.038692 -0.026879 -0.012682 0.166949 -0.039356 -0.154925 0.016383 -0.181579 0.057166 0.301439 0.321798 0.027674 -0.184599 0.104823 0.114367 0.089684 0.282868 0.252408 0.142800 0.035261 -0.157551 -0.239393 -0.077451 -0.008506 -0.036914 -0.257203 -0.126436 0.066727 0.005153 -0.041010 -0.128094
sent_136 -0.170578 -0.069601 -0.032390 0.091753 0.090130 -0.154512 0.144426 -0.189661 -0.123245 -0.014170 0.055102 0.258613 -0.040845 0.165289 0.292247 -0.161635 -0.064842 -0.153701 0.026318 -0.116807 -0.060470 -0.028469 0.129095 0.026646 -0.122261 -0.103656 -0.027771 -0.122223 0.145334 0.076829 -0.058569 -0.098434 0.013070 -0.010684 0.027849 0.183006 0.138299 0.054414 0.021681 0.065161 -0.045379 0.012173 0.033879 -0.089609 -0.008216 -0.047510 -0.011308 0.016391 0.018990 0.055581
sent_137 0.037499 -0.020737 -0.036581 -0.016847 0.003876 -0.017595 -0.017037 0.002686 -0.013810 0.006407 -0.028811 -0.033691 -0.004011 0.011223 0.021519 0.007233 -0.008451 0.022620 -0.025436 0.007755 0.002884 0.004358 -0.011075 -0.013158 -0.002790 0.032314 -0.003338 0.032215 0.009326 0.026421 -0.016698 -0.001097 0.008095 0.011606 -0.009797 -0.011366 -0.000040 -0.005007 0.011681 -0.044818 -0.005897 -0.003728 -0.013344 0.031415 -0.038921 0.001367 -0.006788 0.008484 -0.022298 -0.037648
sent_138 0.233975 -0.079037 -0.099224 -0.049364 -0.055289 -0.005412 -0.165627 0.099641 0.054779 0.016729 -0.124280 -0.267668 0.009186 0.008855 -0.109968 0.115203 -0.018693 0.176566 -0.173276 0.143307 0.077329 0.083745 -0.123281 -0.048220 0.089127 0.165321 -0.013406 0.207633 -0.062477 0.045029 -0.039496 0.060573 0.017326 0.045179 -0.024586 -0.113654 -0.121416 -0.027947 -0.005582 -0.232301 -0.034018 -0.028421 -0.079562 0.194828 -0.137431 0.080729 -0.019794 0.096106 -0.081283 -0.202988
sent_139 0.133790 0.043823 0.034553 -0.004875 -0.052446 0.077158 -0.081090 0.188490 0.072339 0.088907 -0.021314 -0.166083 0.082187 -0.116643 -0.187466 0.142477 -0.005613 0.059389 0.012186 0.018141 0.002674 -0.018176 -0.096363 -0.087557 0.064207 0.105108 -0.033081 0.104419 -0.022964 -0.153083 0.037922 0.073302 0.040661 -0.036053 -0.110812 -0.171412 -0.059065 -0.064363 -0.089874 -0.097185 -0.005968 0.024488 -0.036198 0.026096 0.096006 0.091781 -0.075842 -0.056725 -0.091657 0.005986
sent_140 0.185799 -0.107097 -0.125217 -0.002627 -0.035308 -0.058620 -0.132042 0.034320 -0.014082 0.010616 -0.087426 -0.150486 0.021796 0.048815 -0.027082 0.081382 -0.025814 0.117677 -0.151948 0.066272 0.073113 0.034040 -0.102167 -0.046486 0.073371 0.113655 -0.075929 0.167484 -0.005303 0.088831 -0.074290 0.025062 0.011492 0.063508 -0.033737 -0.049295 -0.047375 0.009028 0.010610 -0.220628 -0.005785 -0.022516 -0.083042 0.146142 -0.083378 0.046671 0.003931 0.090801 -0.069182 -0.158433
sent_141 -0.363443 -0.173512 -0.029377 0.126655 0.121210 -0.183359 0.383060 -0.265497 -0.314268 -0.022006 0.200134 0.509340 -0.074489 0.158201 0.416952 -0.129285 -0.080960 -0.289544 0.088818 -0.132835 -0.088925 -0.099634 0.314941 -0.064850 -0.195301 -0.185041 -0.128495 -0.167478 0.361102 0.136618 -0.081282 -0.041249 0.030624 -0.078422 0.020833 0.351575 0.176566 0.190822 -0.046648 0.222324 -0.022074 0.060976 0.170087 -0.218852 0.218575 -0.204035 0.160416 -0.100532 0.103968 0.157305
sent_142 -0.171349 -0.276830 -0.220991 0.138426 -0.010900 -0.109724 0.218737 -0.403511 -0.419570 -0.131102 0.086498 0.505523 -0.118760 0.317235 0.488011 -0.146889 -0.122175 -0.257159 0.019859 -0.246806 -0.126566 -0.090358 0.368390 -0.098245 -0.040742 -0.064657 -0.266906 -0.101885 0.229648 0.201727 -0.320905 -0.144150 -0.015522 -0.105092 -0.052046 0.141025 0.187378 -0.015072 -0.065486 0.118973 0.245150 -0.070392 -0.018572 -0.092796 0.094688 -0.339186 -0.049380 -0.090391 0.005621 0.199141
sent_143 -0.405048 0.041307 0.202184 0.129883 0.036588 0.052950 0.303248 -0.074412 -0.113363 -0.042761 0.162537 0.321680 -0.116787 0.061258 0.080914 -0.234563 0.020683 -0.188552 0.162564 -0.107699 -0.147264 -0.011178 0.244281 0.018825 -0.172054 -0.248940 0.071534 -0.287180 0.170022 -0.093826 0.037113 0.011921 -0.075365 -0.200537 0.080957 0.215722 0.137203 0.030851 -0.039934 0.487617 0.091754 0.012606 0.206847 -0.293968 0.337396 -0.079634 -0.015523 -0.118168 0.197715 0.251737
sent_144 -0.476777 -0.034355 0.047357 0.122312 0.185386 -0.188900 0.456865 -0.410778 -0.296388 -0.003612 0.195207 0.592685 -0.017175 0.259212 0.449018 -0.266446 -0.074399 -0.456824 0.259763 -0.176983 -0.136019 -0.156104 0.409641 -0.010160 -0.306331 -0.337626 -0.007496 -0.544278 0.320565 0.152616 0.075251 -0.203893 -0.013456 -0.158504 0.062335 0.436219 0.361701 0.150944 0.138354 0.369419 -0.084607 -0.057484 0.137587 -0.348633 0.105526 -0.265043 0.045128 -0.159664 0.021051 0.271042
sent_145 -0.357746 0.062402 0.211699 0.128182 -0.017498 0.041190 0.226681 -0.027685 -0.080118 -0.017096 0.196221 0.253733 -0.022738 -0.082881 -0.009287 -0.106993 0.101711 -0.224731 0.241714 -0.107105 -0.034950 -0.025322 0.225966 -0.000740 -0.114182 -0.253172 0.019085 -0.302649 0.118776 -0.076828 0.070300 0.026351 -0.097060 -0.183075 0.011817 0.087087 0.096467 0.073363 -0.079564 0.475323 0.165560 0.148045 0.194358 -0.293114 0.398008 -0.087817 0.056675 -0.174739 0.163109 0.350977
sent_146 -0.605713 -0.063894 0.090128 0.059140 0.236005 -0.101268 0.572393 -0.451069 -0.393579 -0.022616 0.233478 0.654061 -0.097844 0.191203 0.526998 -0.229007 -0.170121 -0.487318 0.357725 -0.149744 -0.150462 -0.119142 0.565991 0.010431 -0.292798 -0.333240 -0.078497 -0.428942 0.299622 0.143573 0.053879 -0.180167 0.003657 -0.170225 0.134667 0.349512 0.385524 0.107916 -0.013283 0.488902 -0.054725 -0.069280 0.185156 -0.362751 0.134477 -0.337175 0.105428 -0.248071 0.128353 0.332059
sent_147 -0.225663 -0.075390 -0.089581 0.068902 0.171235 -0.073265 0.247712 -0.333117 -0.220174 -0.005913 0.112821 0.393588 -0.055050 0.156598 0.408085 -0.171045 -0.114639 -0.281229 0.080866 -0.201835 -0.135451 -0.150549 0.183713 -0.079911 -0.127495 -0.079887 -0.127718 -0.214699 0.176946 0.054174 -0.065068 -0.205235 -0.035707 -0.090567 0.028248 0.281433 0.252541 0.051881 0.191966 0.095880 -0.049946 -0.121697 -0.022374 -0.148228 0.022976 -0.216762 -0.041894 -0.086612 0.017473 0.173221
sent_148 -0.409178 0.223644 0.227328 0.157958 -0.080485 0.199742 0.240037 -0.026196 0.000145 -0.033512 0.214156 0.360290 -0.052099 -0.091294 -0.048953 -0.205246 0.125319 -0.227355 0.202479 -0.228947 -0.182682 -0.069860 0.134512 -0.008290 -0.120843 -0.188067 0.053540 -0.372655 0.074756 -0.282800 0.061295 -0.016354 -0.061541 -0.264305 -0.019033 0.121556 0.064157 0.009262 -0.020101 0.528231 0.260367 0.092676 0.163490 -0.372670 0.433483 -0.121121 -0.083037 -0.199394 0.222963 0.441627
sent_149 -0.410963 0.072385 0.174751 0.282248 -0.124236 0.114875 0.224324 0.015464 -0.060574 -0.074505 0.323699 0.452875 -0.039644 -0.061858 0.013406 -0.193490 0.129632 -0.247115 0.218061 -0.309440 -0.134883 -0.137400 0.114421 0.011248 -0.056126 -0.247732 -0.127388 -0.263783 0.246557 -0.190147 -0.084447 0.073066 -0.033762 -0.209779 -0.079199 0.169134 0.075500 0.090407 -0.185259 0.433496 0.344508 0.241631 0.224323 -0.434102 0.663473 -0.139270 0.025676 -0.130707 0.271746 0.451756
sent_150 -0.341996 0.138689 0.100113 0.073864 0.045277 0.158332 0.248360 -0.117056 -0.133840 -0.134267 0.129897 0.355607 -0.136715 -0.039307 0.075624 -0.174034 0.068996 -0.181512 0.246396 -0.146037 -0.191207 -0.021775 0.270766 0.072101 -0.142503 -0.142691 -0.013585 -0.160077 -0.031248 -0.181824 -0.055008 -0.042912 -0.092421 -0.122053 0.025508 0.065204 0.028747 -0.076016 -0.125261 0.497695 0.204387 0.064908 0.161485 -0.271705 0.256794 -0.145020 -0.083022 -0.142261 0.208043 0.297899
sent_151 -0.519007 0.089513 0.104551 0.087381 0.116528 0.028929 0.309593 -0.247824 -0.141798 -0.092868 0.298994 0.562125 -0.069511 -0.019781 0.346831 -0.245859 -0.009181 -0.374545 0.356289 -0.317317 -0.217661 -0.248978 0.273276 0.051934 -0.140296 -0.287727 -0.051319 -0.389013 0.167866 -0.085697 -0.004539 -0.115382 -0.016164 -0.103545 0.069147 0.282276 0.254939 0.035883 0.047418 0.425134 0.098283 -0.014208 0.143783 -0.378080 0.293830 -0.287917 0.048152 -0.217867 0.151148 0.445833
sent_152 -0.436901 0.011578 0.233592 0.096746 0.091051 0.080643 0.397367 -0.053515 -0.090103 -0.073240 0.207600 0.227278 -0.005611 -0.079013 0.031007 -0.084603 -0.021019 -0.243018 0.339091 0.015530 -0.038013 -0.062310 0.356001 -0.025367 -0.264014 -0.278089 -0.005566 -0.342474 0.172286 0.033829 0.119243 0.087130 -0.084650 -0.216807 0.098134 0.201903 0.164744 0.182472 -0.051235 0.510903 0.182754 0.098966 0.346518 -0.291172 0.281225 -0.216845 0.156985 -0.166480 0.049941 0.318246
sent_153 -0.130009 -0.159394 -0.138993 -0.050458 0.086033 -0.176291 0.182814 -0.320074 -0.186657 0.057738 0.009825 0.343472 -0.130995 0.171781 0.371180 0.025057 -0.060143 -0.184278 -0.017784 -0.044417 -0.119738 -0.049723 0.169352 -0.082248 -0.095252 0.018280 -0.083317 -0.033574 0.086755 0.195098 -0.048015 -0.129692 0.185746 0.020605 -0.007006 0.135250 0.112947 0.088814 0.062624 -0.097060 -0.035135 -0.017385 -0.067596 0.003386 -0.207812 -0.216904 0.153760 -0.037823 -0.030457 0.035848
sent_154 0.236195 -0.095712 -0.135075 0.002290 -0.066153 -0.004716 -0.145463 0.043720 -0.010833 0.009674 -0.124888 -0.191076 -0.012024 0.034681 -0.066046 0.125680 -0.028347 0.139199 -0.149261 0.072582 0.041405 0.044639 -0.145233 -0.069166 0.107821 0.169237 -0.078247 0.202918 -0.056298 0.067985 -0.066495 0.002322 -0.005387 0.056742 -0.046453 -0.108886 -0.081901 -0.003862 -0.006084 -0.205279 0.052425 -0.052537 -0.125729 0.134669 -0.108820 0.026017 -0.029103 0.084087 -0.045357 -0.134844
sent_155 -0.066013 0.019053 0.020006 0.014384 0.006553 0.005575 0.038286 -0.035236 -0.022757 -0.002963 0.036091 0.070594 -0.002224 -0.000472 0.049823 -0.041951 -0.003174 -0.049707 0.032798 -0.046545 -0.032704 -0.019731 0.035060 0.018956 -0.028192 -0.030739 -0.000152 -0.050436 0.027166 -0.003631 0.002560 -0.016378 0.005374 -0.010791 0.003574 0.022234 0.030412 -0.005705 0.009785 0.043165 0.017452 0.006167 0.019707 -0.040955 0.034506 -0.033251 -0.009134 -0.017849 0.015200 0.050616
sent_156 -0.029038 0.399211 0.000413 -0.170905 0.218813 0.271475 0.013624 -0.269606 -0.041995 -0.009076 -0.040881 0.120310 -0.142678 -0.215111 0.261146 -0.137982 -0.025413 -0.229392 0.369334 -0.358617 -0.228821 0.001406 0.054683 0.087697 0.127599 0.255091 -0.026053 -0.002344 -0.508691 -0.248780 0.076152 -0.323622 -0.024582 0.137078 0.087294 -0.339599 0.095406 -0.396863 0.138865 0.017740 0.192656 -0.188832 -0.248008 0.067926 -0.409380 -0.211187 -0.295842 -0.221324 0.059393 0.339061
sent_157 0.055682 0.049045 -0.039374 -0.061429 0.008688 0.081756 -0.017585 -0.003754 0.045318 0.039571 -0.038440 -0.052287 -0.014841 -0.038460 -0.026655 0.097879 -0.035073 0.037850 0.009704 0.038016 -0.012810 0.003920 -0.055363 -0.020515 0.039660 0.084398 0.015467 0.113798 -0.106981 -0.005369 0.014205 0.001677 0.044996 0.033173 0.008910 -0.119918 -0.034053 -0.047630 -0.022421 -0.067047 0.017395 0.005824 -0.048468 0.043199 -0.119977 -0.022846 0.021297 -0.043053 -0.018056 -0.035282
sent_158 0.053259 0.174721 0.141293 0.038204 -0.130736 0.222742 -0.095848 0.248236 0.217838 0.049255 -0.023300 -0.157524 0.014731 -0.169626 -0.374189 0.020370 0.189870 0.122727 -0.060920 0.024256 -0.042503 0.079528 -0.278641 -0.025681 0.067580 0.078902 0.126322 0.077701 -0.157976 -0.259258 0.094380 0.120487 -0.040646 -0.096460 -0.021454 -0.085946 -0.193025 0.002574 -0.002954 0.103458 0.142928 0.105518 -0.004874 -0.054773 0.179907 0.173034 -0.093702 0.011453 0.167507 0.075293
sent_159 0.133789 0.017820 -0.034106 -0.048347 -0.050141 0.049778 -0.126202 0.095055 0.074519 0.024328 -0.076349 -0.146599 -0.018840 -0.051391 -0.105613 0.071066 0.044267 0.111505 -0.087312 0.047466 -0.021390 0.040571 -0.112880 -0.032956 0.080366 0.135115 0.014916 0.144644 -0.092256 -0.046400 -0.014811 0.044704 0.006434 0.007828 -0.023492 -0.092427 -0.106329 -0.047144 0.031495 -0.103806 0.024217 -0.012886 -0.068974 0.110229 -0.039925 0.055384 -0.033401 0.043584 -0.001673 -0.067178
