7 10
sent_0 -0.088553 0.149878 -0.064272 -0.079958 -0.125368 -0.001004 -0.193896 0.104108 -0.057740 0.047227
sent_1 0.002072 -0.013485 -0.047336 0.048782 -0.030703 0.018478 0.041850 -0.026916 -0.054430 -0.031048
sent_2 -0.071286 0.213882 -0.019992 -0.072332 -0.032830 0.076575 -0.285750 0.126769 -0.041812 0.087785
sent_3 -0.046236 0.000677 0.034152 0.001622 0.015796 -0.022232 0.024786 0.030695 -0.063507 0.030620
sent_4 0.048988 0.006564 -0.015585 0.020510 -0.026686 0.000084 0.024307 -0.011905 -0.014070 -0.055073
sent_5 -0.076955 0.053016 -0.040083 -0.043948 -0.010046 -0.041310 -0.039540 -0.006836 -0.011739 0.036956
sent_6 -0.037129 -0.017074 0.018793 -0.006758 -0.040278 0.002654 0.023232 -0.004120 0.043460 0.006422
